<?xml version="1.0"?>
<opencv_storage>
<opencv_ml_svm>
  <format>3</format>
  <svmType>EPS_SVR</svmType>
  <kernel>
    <type>RBF</type>
    <gamma>5.0625000000000009e-01</gamma></kernel>
  <C>3.1250000000000000e+02</C>
  <p>2.4010000000000002e+01</p>
  <term_criteria><epsilon>1.1920928955078125e-07</epsilon>
    <iterations>1000</iterations></term_criteria>
  <var_count>100</var_count>
  <sv_total>592</sv_total>
  <support_vectors>
    <_>
      3.33333343e-01 3.33333343e-01 3.21637422e-01 3.04093570e-01
      3.04093570e-01 3.09941530e-01 3.15789461e-01 3.15789461e-01
      3.09941530e-01 2.86549717e-01 3.27485383e-01 3.27485383e-01
      3.15789461e-01 3.04093570e-01 3.09941530e-01 3.15789461e-01
      3.15789461e-01 3.21637422e-01 3.15789461e-01 3.04093570e-01
      3.39181274e-01 3.27485383e-01 3.15789461e-01 3.15789461e-01
      3.15789461e-01 3.21637422e-01 3.27485383e-01 3.27485383e-01
      3.04093570e-01 3.09941530e-01 3.50877196e-01 3.39181274e-01
      3.27485383e-01 3.21637422e-01 3.15789461e-01 3.27485383e-01
      3.39181274e-01 3.33333343e-01 2.98245609e-01 2.98245609e-01
      3.45029235e-01 3.45029235e-01 3.39181274e-01 3.27485383e-01
      3.21637422e-01 3.33333343e-01 3.39181274e-01 3.39181274e-01
      3.21637422e-01 3.04093570e-01 3.39181274e-01 3.39181274e-01
      3.33333343e-01 3.27485383e-01 3.27485383e-01 3.27485383e-01
      3.33333343e-01 3.39181274e-01 3.39181274e-01 3.33333343e-01
      3.50877196e-01 3.45029235e-01 3.45029235e-01 3.33333343e-01
      3.21637422e-01 3.39181274e-01 3.45029235e-01 3.45029235e-01
      3.15789461e-01 3.39181274e-01 3.50877196e-01 3.62573087e-01
      3.45029235e-01 3.27485383e-01 3.33333343e-01 3.45029235e-01
      3.50877196e-01 3.33333343e-01 3.27485383e-01 3.21637422e-01
      3.74269009e-01 3.62573087e-01 3.39181274e-01 3.33333343e-01
      3.45029235e-01 3.45029235e-01 3.50877196e-01 3.45029235e-01
      3.45029235e-01 3.27485383e-01 3.62573087e-01 3.56725156e-01
      3.45029235e-01 3.39181274e-01 3.45029235e-01 3.45029235e-01
      3.62573087e-01 3.50877196e-01 3.45029235e-01 3.27485383e-01</_>
    <_>
      8.01169574e-01 8.01169574e-01 7.95321643e-01 7.89473712e-01
      7.83625722e-01 7.77777791e-01 7.83625722e-01 7.83625722e-01
      7.83625722e-01 7.83625722e-01 7.77777791e-01 7.77777791e-01
      7.83625722e-01 7.83625722e-01 7.83625722e-01 7.77777791e-01
      7.95321643e-01 7.77777791e-01 7.77777791e-01 7.83625722e-01
      8.01169574e-01 7.95321643e-01 7.89473712e-01 8.01169574e-01
      8.07017565e-01 8.01169574e-01 7.89473712e-01 7.71929801e-01
      8.01169574e-01 7.95321643e-01 8.07017565e-01 8.12865496e-01
      7.89473712e-01 7.89473712e-01 8.01169574e-01 8.01169574e-01
      8.01169574e-01 7.89473712e-01 7.83625722e-01 7.83625722e-01
      7.89473712e-01 8.07017565e-01 7.89473712e-01 7.89473712e-01
      8.07017565e-01 8.01169574e-01 7.83625722e-01 7.83625722e-01
      8.07017565e-01 7.77777791e-01 7.89473712e-01 7.83625722e-01
      7.83625722e-01 7.83625722e-01 7.89473712e-01 7.89473712e-01
      7.77777791e-01 7.77777791e-01 7.95321643e-01 7.95321643e-01
      7.95321643e-01 7.83625722e-01 7.77777791e-01 7.77777791e-01
      7.77777791e-01 7.83625722e-01 7.77777791e-01 7.77777791e-01
      7.83625722e-01 8.12865496e-01 8.12865496e-01 8.01169574e-01
      7.89473712e-01 7.83625722e-01 7.89473712e-01 7.95321643e-01
      7.89473712e-01 7.77777791e-01 7.89473712e-01 8.01169574e-01
      8.12865496e-01 8.07017565e-01 7.95321643e-01 7.95321643e-01
      8.01169574e-01 8.01169574e-01 7.89473712e-01 7.77777791e-01
      7.95321643e-01 7.89473712e-01 7.95321643e-01 7.89473712e-01
      7.83625722e-01 7.95321643e-01 8.01169574e-01 7.95321643e-01
      7.83625722e-01 7.71929801e-01 7.83625722e-01 7.89473712e-01</_>
    <_>
      8.47953200e-01 8.42105269e-01 8.36257339e-01 8.18713427e-01
      8.30409348e-01 8.30409348e-01 8.59649122e-01 8.47953200e-01
      8.47953200e-01 8.53801191e-01 8.53801191e-01 8.42105269e-01
      8.36257339e-01 8.18713427e-01 8.42105269e-01 8.36257339e-01
      8.30409348e-01 8.42105269e-01 8.53801191e-01 8.47953200e-01
      8.42105269e-01 8.36257339e-01 8.36257339e-01 8.18713427e-01
      8.36257339e-01 8.53801191e-01 8.36257339e-01 8.36257339e-01
      8.53801191e-01 8.42105269e-01 8.36257339e-01 8.36257339e-01
      8.42105269e-01 8.30409348e-01 8.36257339e-01 8.42105269e-01
      8.18713427e-01 8.30409348e-01 8.30409348e-01 8.24561417e-01
      8.36257339e-01 8.36257339e-01 8.47953200e-01 8.47953200e-01
      8.42105269e-01 8.47953200e-01 8.24561417e-01 8.30409348e-01
      8.24561417e-01 8.24561417e-01 8.30409348e-01 8.36257339e-01
      8.47953200e-01 8.53801191e-01 8.42105269e-01 8.47953200e-01
      8.47953200e-01 8.42105269e-01 8.42105269e-01 8.36257339e-01
      8.30409348e-01 8.36257339e-01 8.53801191e-01 8.53801191e-01
      8.47953200e-01 8.36257339e-01 8.47953200e-01 8.47953200e-01
      8.53801191e-01 8.47953200e-01 8.18713427e-01 8.30409348e-01
      8.53801191e-01 8.53801191e-01 8.47953200e-01 8.36257339e-01
      8.42105269e-01 8.47953200e-01 8.65497053e-01 8.53801191e-01
      8.24561417e-01 8.30409348e-01 8.42105269e-01 8.30409348e-01
      8.47953200e-01 8.47953200e-01 8.65497053e-01 8.47953200e-01
      8.47953200e-01 8.36257339e-01 8.30409348e-01 8.47953200e-01
      8.47953200e-01 8.36257339e-01 8.30409348e-01 8.18713427e-01
      8.24561417e-01 8.42105269e-01 8.47953200e-01 8.30409348e-01</_>
    <_>
      6.60818696e-01 6.72514617e-01 6.78362548e-01 6.72514617e-01
      6.60818696e-01 6.78362548e-01 7.07602322e-01 7.19298244e-01
      7.07602322e-01 6.95906460e-01 6.60818696e-01 6.84210539e-01
      6.95906460e-01 6.78362548e-01 6.84210539e-01 6.72514617e-01
      6.95906460e-01 6.90058470e-01 6.90058470e-01 6.84210539e-01
      6.72514617e-01 6.78362548e-01 6.84210539e-01 6.90058470e-01
      6.95906460e-01 6.84210539e-01 6.78362548e-01 6.66666687e-01
      6.72514617e-01 6.78362548e-01 6.66666687e-01 6.72514617e-01
      6.78362548e-01 6.95906460e-01 6.84210539e-01 6.60818696e-01
      6.78362548e-01 7.07602322e-01 6.95906460e-01 7.01754391e-01
      6.72514617e-01 6.66666687e-01 6.72514617e-01 6.84210539e-01
      6.78362548e-01 6.84210539e-01 6.90058470e-01 7.13450313e-01
      7.01754391e-01 6.90058470e-01 6.54970765e-01 6.60818696e-01
      6.78362548e-01 6.78362548e-01 6.60818696e-01 6.54970765e-01
      6.78362548e-01 7.01754391e-01 6.84210539e-01 6.78362548e-01
      6.49122834e-01 6.49122834e-01 6.60818696e-01 6.60818696e-01
      6.54970765e-01 6.54970765e-01 6.90058470e-01 6.95906460e-01
      6.78362548e-01 6.84210539e-01 6.25730991e-01 6.31578922e-01
      6.54970765e-01 6.60818696e-01 6.72514617e-01 6.49122834e-01
      6.78362548e-01 6.84210539e-01 6.78362548e-01 6.90058470e-01
      6.02339208e-01 6.14035070e-01 6.49122834e-01 6.66666687e-01
      6.78362548e-01 6.60818696e-01 6.72514617e-01 6.78362548e-01
      6.78362548e-01 7.01754391e-01 5.96491218e-01 6.08187139e-01
      6.37426913e-01 6.66666687e-01 6.72514617e-01 6.84210539e-01
      6.84210539e-01 6.78362548e-01 6.90058470e-01 7.07602322e-01</_>
    <_>
      7.30994165e-01 7.42690086e-01 7.07602322e-01 7.48538017e-01
      7.42690086e-01 7.13450313e-01 6.95906460e-01 7.19298244e-01
      7.36842096e-01 7.42690086e-01 7.19298244e-01 7.19298244e-01
      7.25146174e-01 7.30994165e-01 7.30994165e-01 7.13450313e-01
      7.13450313e-01 7.19298244e-01 7.25146174e-01 7.42690086e-01
      7.36842096e-01 7.25146174e-01 7.36842096e-01 7.30994165e-01
      7.54385948e-01 7.25146174e-01 7.30994165e-01 7.36842096e-01
      7.25146174e-01 7.36842096e-01 7.36842096e-01 7.48538017e-01
      7.36842096e-01 7.13450313e-01 7.48538017e-01 7.25146174e-01
      7.30994165e-01 7.25146174e-01 7.19298244e-01 7.30994165e-01
      7.25146174e-01 7.48538017e-01 7.36842096e-01 7.19298244e-01
      7.30994165e-01 7.36842096e-01 7.30994165e-01 7.25146174e-01
      7.19298244e-01 7.25146174e-01 7.30994165e-01 7.30994165e-01
      7.42690086e-01 7.36842096e-01 7.30994165e-01 7.36842096e-01
      7.36842096e-01 7.42690086e-01 7.42690086e-01 7.30994165e-01
      7.42690086e-01 7.36842096e-01 7.25146174e-01 7.19298244e-01
      7.36842096e-01 7.36842096e-01 7.30994165e-01 7.36842096e-01
      7.36842096e-01 7.30994165e-01 7.30994165e-01 7.36842096e-01
      7.36842096e-01 7.48538017e-01 7.30994165e-01 7.30994165e-01
      7.25146174e-01 7.19298244e-01 7.25146174e-01 7.36842096e-01
      7.30994165e-01 7.07602322e-01 7.30994165e-01 7.30994165e-01
      7.25146174e-01 7.48538017e-01 7.48538017e-01 7.42690086e-01
      7.42690086e-01 7.36842096e-01 7.19298244e-01 7.19298244e-01
      7.48538017e-01 7.19298244e-01 7.25146174e-01 7.36842096e-01
      7.42690086e-01 7.30994165e-01 7.30994165e-01 7.36842096e-01</_>
    <_>
      3.91812861e-01 4.21052635e-01 4.09356713e-01 3.97660822e-01
      4.03508782e-01 4.03508782e-01 4.09356713e-01 4.09356713e-01
      4.15204674e-01 4.21052635e-01 3.97660822e-01 4.15204674e-01
      4.03508782e-01 4.03508782e-01 4.09356713e-01 4.09356713e-01
      4.09356713e-01 4.15204674e-01 4.21052635e-01 4.32748526e-01
      3.97660822e-01 4.03508782e-01 4.09356713e-01 4.09356713e-01
      4.03508782e-01 4.03508782e-01 4.15204674e-01 4.21052635e-01
      4.26900595e-01 4.15204674e-01 3.91812861e-01 4.15204674e-01
      4.21052635e-01 4.03508782e-01 3.97660822e-01 3.97660822e-01
      4.21052635e-01 4.38596487e-01 4.21052635e-01 4.03508782e-01
      4.26900595e-01 4.38596487e-01 4.15204674e-01 4.15204674e-01
      4.21052635e-01 4.21052635e-01 4.32748526e-01 4.38596487e-01
      4.38596487e-01 4.26900595e-01 4.38596487e-01 4.38596487e-01
      4.21052635e-01 4.26900595e-01 4.26900595e-01 4.26900595e-01
      4.32748526e-01 4.38596487e-01 4.32748526e-01 4.38596487e-01
      4.15204674e-01 4.26900595e-01 4.32748526e-01 4.38596487e-01
      4.32748526e-01 4.21052635e-01 4.21052635e-01 4.32748526e-01
      4.38596487e-01 4.26900595e-01 4.38596487e-01 4.44444448e-01
      4.38596487e-01 4.38596487e-01 4.44444448e-01 4.44444448e-01
      4.32748526e-01 4.32748526e-01 4.44444448e-01 4.44444448e-01
      4.44444448e-01 4.50292408e-01 4.44444448e-01 4.38596487e-01
      4.38596487e-01 4.44444448e-01 4.50292408e-01 4.50292408e-01
      4.56140339e-01 4.44444448e-01 4.38596487e-01 4.44444448e-01
      4.44444448e-01 4.38596487e-01 4.38596487e-01 4.44444448e-01
      4.44444448e-01 4.50292408e-01 4.56140339e-01 4.56140339e-01</_>
    <_>
      4.73684222e-01 4.73684222e-01 4.73684222e-01 4.79532152e-01
      4.85380113e-01 4.97076035e-01 4.97076035e-01 4.91228074e-01
      4.97076035e-01 5.20467818e-01 4.61988300e-01 4.44444448e-01
      4.50292408e-01 4.61988300e-01 4.79532152e-01 4.91228074e-01
      4.85380113e-01 4.79532152e-01 4.91228074e-01 5.14619887e-01
      4.50292408e-01 4.38596487e-01 4.44444448e-01 4.61988300e-01
      4.79532152e-01 4.85380113e-01 4.79532152e-01 4.79532152e-01
      4.85380113e-01 5.02923965e-01 4.50292408e-01 4.44444448e-01
      4.61988300e-01 4.91228074e-01 5.02923965e-01 4.97076035e-01
      4.91228074e-01 4.91228074e-01 4.85380113e-01 5.02923965e-01
      4.67836261e-01 4.61988300e-01 4.67836261e-01 4.91228074e-01
      4.91228074e-01 4.79532152e-01 4.79532152e-01 4.91228074e-01
      4.97076035e-01 5.14619887e-01 4.79532152e-01 4.79532152e-01
      4.91228074e-01 4.91228074e-01 4.97076035e-01 4.85380113e-01
      4.79532152e-01 4.97076035e-01 5.02923965e-01 5.26315808e-01
      4.67836261e-01 4.79532152e-01 4.91228074e-01 5.02923965e-01
      4.91228074e-01 4.85380113e-01 4.91228074e-01 4.97076035e-01
      5.08771956e-01 5.02923965e-01 4.56140339e-01 4.85380113e-01
      5.08771956e-01 5.02923965e-01 4.85380113e-01 4.73684222e-01
      4.79532152e-01 4.85380113e-01 5.08771956e-01 5.08771956e-01
      4.67836261e-01 4.73684222e-01 4.85380113e-01 4.91228074e-01
      4.97076035e-01 4.91228074e-01 4.85380113e-01 4.85380113e-01
      5.14619887e-01 5.26315808e-01 4.67836261e-01 4.79532152e-01
      4.85380113e-01 5.02923965e-01 5.02923965e-01 4.97076035e-01
      5.02923965e-01 5.08771956e-01 5.08771956e-01 5.14619887e-01</_>
    <_>
      8.47953200e-01 8.65497053e-01 8.71345043e-01 8.77192974e-01
      8.65497053e-01 8.47953200e-01 8.18713427e-01 8.01169574e-01
      8.18713427e-01 8.30409348e-01 8.53801191e-01 8.36257339e-01
      8.42105269e-01 8.65497053e-01 8.59649122e-01 8.36257339e-01
      8.01169574e-01 8.07017565e-01 8.42105269e-01 8.47953200e-01
      8.65497053e-01 8.59649122e-01 8.59649122e-01 8.59649122e-01
      8.30409348e-01 8.01169574e-01 7.95321643e-01 8.18713427e-01
      8.47953200e-01 8.47953200e-01 8.53801191e-01 8.53801191e-01
      8.59649122e-01 8.71345043e-01 8.47953200e-01 8.18713427e-01
      8.12865496e-01 8.36257339e-01 8.53801191e-01 8.42105269e-01
      8.47953200e-01 8.65497053e-01 8.65497053e-01 8.77192974e-01
      8.77192974e-01 8.42105269e-01 8.36257339e-01 8.47953200e-01
      8.53801191e-01 8.42105269e-01 8.53801191e-01 8.65497053e-01
      8.53801191e-01 8.59649122e-01 8.77192974e-01 8.65497053e-01
      8.47953200e-01 8.47953200e-01 8.47953200e-01 8.47953200e-01
      8.65497053e-01 8.59649122e-01 8.36257339e-01 8.47953200e-01
      8.71345043e-01 8.71345043e-01 8.53801191e-01 8.36257339e-01
      8.42105269e-01 8.53801191e-01 8.59649122e-01 8.65497053e-01
      8.47953200e-01 8.53801191e-01 8.77192974e-01 8.71345043e-01
      8.47953200e-01 8.30409348e-01 8.30409348e-01 8.47953200e-01
      8.42105269e-01 8.59649122e-01 8.59649122e-01 8.71345043e-01
      8.83040965e-01 8.71345043e-01 8.47953200e-01 8.24561417e-01
      8.12865496e-01 8.30409348e-01 8.36257339e-01 8.53801191e-01
      8.53801191e-01 8.65497053e-01 8.71345043e-01 8.59649122e-01
      8.36257339e-01 8.12865496e-01 8.01169574e-01 8.24561417e-01</_>
    <_>
      8.65497053e-01 8.65497053e-01 8.88888896e-01 9.12280679e-01
      8.94736826e-01 8.53801191e-01 8.88888896e-01 8.71345043e-01
      8.83040965e-01 8.88888896e-01 8.88888896e-01 8.88888896e-01
      9.00584817e-01 9.12280679e-01 9.18128669e-01 8.83040965e-01
      8.88888896e-01 8.88888896e-01 9.00584817e-01 9.06432748e-01
      9.06432748e-01 9.12280679e-01 9.12280679e-01 8.88888896e-01
      9.18128669e-01 8.83040965e-01 8.83040965e-01 8.77192974e-01
      8.83040965e-01 9.00584817e-01 8.83040965e-01 8.88888896e-01
      8.65497053e-01 8.83040965e-01 8.88888896e-01 8.88888896e-01
      8.94736826e-01 8.88888896e-01 8.88888896e-01 8.88888896e-01
      8.83040965e-01 8.77192974e-01 8.59649122e-01 8.71345043e-01
      8.94736826e-01 8.88888896e-01 8.83040965e-01 8.88888896e-01
      8.94736826e-01 8.83040965e-01 8.88888896e-01 8.88888896e-01
      9.00584817e-01 8.88888896e-01 9.12280679e-01 8.94736826e-01
      8.65497053e-01 8.88888896e-01 9.00584817e-01 9.00584817e-01
      8.88888896e-01 8.83040965e-01 8.94736826e-01 8.83040965e-01
      9.00584817e-01 9.23976600e-01 8.83040965e-01 9.06432748e-01
      9.06432748e-01 9.06432748e-01 9.00584817e-01 8.94736826e-01
      8.94736826e-01 8.88888896e-01 9.06432748e-01 9.23976600e-01
      8.88888896e-01 9.00584817e-01 8.94736826e-01 8.94736826e-01
      9.00584817e-01 9.00584817e-01 9.00584817e-01 9.00584817e-01
      9.00584817e-01 8.94736826e-01 8.83040965e-01 8.88888896e-01
      8.88888896e-01 8.88888896e-01 8.94736826e-01 8.88888896e-01
      8.83040965e-01 9.00584817e-01 9.06432748e-01 8.83040965e-01
      8.83040965e-01 8.88888896e-01 8.88888896e-01 8.88888896e-01</_>
    <_>
      6.19883060e-01 6.02339208e-01 6.08187139e-01 6.25730991e-01
      6.25730991e-01 6.08187139e-01 5.90643287e-01 6.02339208e-01
      6.08187139e-01 5.96491218e-01 6.25730991e-01 6.25730991e-01
      6.31578922e-01 6.25730991e-01 6.25730991e-01 6.14035070e-01
      6.02339208e-01 6.14035070e-01 6.14035070e-01 6.02339208e-01
      6.25730991e-01 6.31578922e-01 6.31578922e-01 6.25730991e-01
      6.14035070e-01 6.08187139e-01 6.25730991e-01 6.31578922e-01
      6.19883060e-01 6.19883060e-01 6.25730991e-01 6.19883060e-01
      6.19883060e-01 6.25730991e-01 6.19883060e-01 6.19883060e-01
      6.31578922e-01 6.37426913e-01 6.31578922e-01 6.25730991e-01
      6.19883060e-01 6.14035070e-01 6.19883060e-01 6.25730991e-01
      6.25730991e-01 6.19883060e-01 6.19883060e-01 6.25730991e-01
      6.31578922e-01 6.19883060e-01 6.31578922e-01 6.37426913e-01
      6.37426913e-01 6.31578922e-01 6.19883060e-01 6.08187139e-01
      6.08187139e-01 6.14035070e-01 6.25730991e-01 6.19883060e-01
      6.54970765e-01 6.54970765e-01 6.49122834e-01 6.31578922e-01
      6.25730991e-01 6.19883060e-01 6.19883060e-01 6.19883060e-01
      6.19883060e-01 6.14035070e-01 6.43274844e-01 6.31578922e-01
      6.25730991e-01 6.19883060e-01 6.19883060e-01 6.25730991e-01
      6.37426913e-01 6.37426913e-01 6.14035070e-01 5.90643287e-01
      6.19883060e-01 6.25730991e-01 6.37426913e-01 6.31578922e-01
      6.43274844e-01 6.43274844e-01 6.37426913e-01 6.31578922e-01
      6.31578922e-01 6.37426913e-01 6.37426913e-01 6.31578922e-01
      6.31578922e-01 6.31578922e-01 6.37426913e-01 6.31578922e-01
      6.25730991e-01 6.19883060e-01 6.14035070e-01 6.19883060e-01</_>
    <_>
      7.95321643e-01 7.95321643e-01 7.89473712e-01 7.89473712e-01
      7.95321643e-01 8.12865496e-01 8.12865496e-01 8.07017565e-01
      8.12865496e-01 8.12865496e-01 7.95321643e-01 8.01169574e-01
      8.01169574e-01 7.89473712e-01 7.83625722e-01 8.12865496e-01
      8.18713427e-01 8.07017565e-01 8.12865496e-01 8.12865496e-01
      8.01169574e-01 8.07017565e-01 8.07017565e-01 7.89473712e-01
      7.89473712e-01 8.07017565e-01 8.07017565e-01 8.07017565e-01
      8.07017565e-01 8.07017565e-01 8.12865496e-01 8.12865496e-01
      8.01169574e-01 7.66081870e-01 7.71929801e-01 8.01169574e-01
      7.95321643e-01 8.01169574e-01 8.07017565e-01 8.01169574e-01
      8.07017565e-01 8.07017565e-01 7.95321643e-01 7.77777791e-01
      7.77777791e-01 8.12865496e-01 8.12865496e-01 8.07017565e-01
      8.12865496e-01 8.07017565e-01 7.95321643e-01 8.07017565e-01
      8.01169574e-01 7.83625722e-01 7.95321643e-01 8.12865496e-01
      8.01169574e-01 8.01169574e-01 8.01169574e-01 8.01169574e-01
      8.01169574e-01 7.95321643e-01 7.83625722e-01 7.83625722e-01
      8.01169574e-01 8.07017565e-01 7.95321643e-01 8.07017565e-01
      8.01169574e-01 7.95321643e-01 8.01169574e-01 7.95321643e-01
      7.89473712e-01 7.89473712e-01 8.01169574e-01 8.12865496e-01
      8.12865496e-01 8.12865496e-01 8.07017565e-01 8.01169574e-01
      8.01169574e-01 8.01169574e-01 8.01169574e-01 7.95321643e-01
      8.01169574e-01 8.24561417e-01 8.18713427e-01 8.12865496e-01
      8.07017565e-01 7.95321643e-01 8.07017565e-01 7.95321643e-01
      8.01169574e-01 7.89473712e-01 8.07017565e-01 8.18713427e-01
      8.07017565e-01 8.18713427e-01 8.07017565e-01 7.95321643e-01</_>
    <_>
      8.47953200e-01 8.36257339e-01 8.24561417e-01 8.30409348e-01
      8.42105269e-01 8.53801191e-01 8.59649122e-01 8.30409348e-01
      8.30409348e-01 8.36257339e-01 8.42105269e-01 8.42105269e-01
      8.36257339e-01 8.36257339e-01 8.42105269e-01 8.47953200e-01
      8.53801191e-01 8.30409348e-01 8.30409348e-01 8.24561417e-01
      8.24561417e-01 8.36257339e-01 8.42105269e-01 8.42105269e-01
      8.42105269e-01 8.47953200e-01 8.36257339e-01 8.24561417e-01
      8.30409348e-01 8.24561417e-01 8.24561417e-01 8.24561417e-01
      8.30409348e-01 8.36257339e-01 8.47953200e-01 8.53801191e-01
      8.47953200e-01 8.24561417e-01 8.36257339e-01 8.30409348e-01
      8.42105269e-01 8.30409348e-01 8.24561417e-01 8.36257339e-01
      8.42105269e-01 8.42105269e-01 8.47953200e-01 8.24561417e-01
      8.24561417e-01 8.53801191e-01 8.42105269e-01 8.24561417e-01
      8.30409348e-01 8.30409348e-01 8.36257339e-01 8.42105269e-01
      8.47953200e-01 8.71345043e-01 8.53801191e-01 8.47953200e-01
      8.42105269e-01 8.42105269e-01 8.53801191e-01 8.47953200e-01
      8.24561417e-01 8.12865496e-01 8.18713427e-01 8.18713427e-01
      8.07017565e-01 8.24561417e-01 8.42105269e-01 8.47953200e-01
      8.42105269e-01 8.47953200e-01 8.53801191e-01 8.53801191e-01
      8.59649122e-01 8.59649122e-01 8.47953200e-01 8.53801191e-01
      8.24561417e-01 8.30409348e-01 8.42105269e-01 8.36257339e-01
      8.30409348e-01 8.42105269e-01 8.47953200e-01 8.36257339e-01
      8.42105269e-01 8.71345043e-01 8.36257339e-01 8.36257339e-01
      8.30409348e-01 8.24561417e-01 8.30409348e-01 8.42105269e-01
      8.53801191e-01 8.36257339e-01 8.30409348e-01 8.65497053e-01</_>
    <_>
      8.18713427e-01 8.18713427e-01 8.24561417e-01 8.36257339e-01
      8.53801191e-01 8.59649122e-01 8.47953200e-01 8.47953200e-01
      8.59649122e-01 8.47953200e-01 8.30409348e-01 8.36257339e-01
      8.42105269e-01 8.47953200e-01 8.42105269e-01 8.30409348e-01
      8.30409348e-01 8.36257339e-01 8.36257339e-01 8.42105269e-01
      8.47953200e-01 8.36257339e-01 8.30409348e-01 8.07017565e-01
      8.07017565e-01 8.24561417e-01 8.42105269e-01 8.47953200e-01
      8.30409348e-01 8.42105269e-01 8.42105269e-01 8.30409348e-01
      8.12865496e-01 8.36257339e-01 8.47953200e-01 8.42105269e-01
      8.36257339e-01 8.42105269e-01 8.42105269e-01 8.24561417e-01
      8.42105269e-01 8.24561417e-01 8.30409348e-01 8.47953200e-01
      8.42105269e-01 8.30409348e-01 8.30409348e-01 8.30409348e-01
      8.36257339e-01 8.30409348e-01 8.47953200e-01 8.30409348e-01
      8.42105269e-01 8.47953200e-01 8.47953200e-01 8.47953200e-01
      8.47953200e-01 8.42105269e-01 8.36257339e-01 8.30409348e-01
      8.36257339e-01 8.24561417e-01 8.36257339e-01 8.24561417e-01
      8.36257339e-01 8.59649122e-01 8.59649122e-01 8.42105269e-01
      8.36257339e-01 8.36257339e-01 8.30409348e-01 8.24561417e-01
      8.36257339e-01 8.24561417e-01 8.42105269e-01 8.59649122e-01
      8.53801191e-01 8.36257339e-01 8.47953200e-01 8.59649122e-01
      8.36257339e-01 8.24561417e-01 8.18713427e-01 8.18713427e-01
      8.30409348e-01 8.42105269e-01 8.36257339e-01 8.36257339e-01
      8.42105269e-01 8.42105269e-01 8.42105269e-01 8.24561417e-01
      8.18713427e-01 8.18713427e-01 8.24561417e-01 8.36257339e-01
      8.36257339e-01 8.30409348e-01 8.24561417e-01 8.24561417e-01</_>
    <_>
      8.36257339e-01 8.30409348e-01 8.36257339e-01 8.47953200e-01
      8.53801191e-01 8.59649122e-01 8.47953200e-01 8.47953200e-01
      8.47953200e-01 8.36257339e-01 8.36257339e-01 8.24561417e-01
      8.24561417e-01 8.47953200e-01 8.59649122e-01 8.47953200e-01
      8.42105269e-01 8.42105269e-01 8.42105269e-01 8.47953200e-01
      8.36257339e-01 8.30409348e-01 8.30409348e-01 8.47953200e-01
      8.59649122e-01 8.42105269e-01 8.42105269e-01 8.30409348e-01
      8.30409348e-01 8.53801191e-01 8.36257339e-01 8.42105269e-01
      8.47953200e-01 8.53801191e-01 8.47953200e-01 8.42105269e-01
      8.47953200e-01 8.24561417e-01 8.30409348e-01 8.59649122e-01
      8.42105269e-01 8.47953200e-01 8.47953200e-01 8.42105269e-01
      8.42105269e-01 8.47953200e-01 8.47953200e-01 8.24561417e-01
      8.36257339e-01 8.59649122e-01 8.30409348e-01 8.30409348e-01
      8.36257339e-01 8.42105269e-01 8.47953200e-01 8.53801191e-01
      8.42105269e-01 8.30409348e-01 8.36257339e-01 8.59649122e-01
      8.30409348e-01 8.36257339e-01 8.53801191e-01 8.59649122e-01
      8.65497053e-01 8.59649122e-01 8.53801191e-01 8.53801191e-01
      8.53801191e-01 8.59649122e-01 8.30409348e-01 8.24561417e-01
      8.42105269e-01 8.59649122e-01 8.53801191e-01 8.42105269e-01
      8.18713427e-01 8.36257339e-01 8.47953200e-01 8.65497053e-01
      8.42105269e-01 8.36257339e-01 8.36257339e-01 8.36257339e-01
      8.36257339e-01 8.47953200e-01 8.42105269e-01 8.42105269e-01
      8.47953200e-01 8.59649122e-01 8.59649122e-01 8.53801191e-01
      8.42105269e-01 8.36257339e-01 8.36257339e-01 8.36257339e-01
      8.53801191e-01 8.42105269e-01 8.42105269e-01 8.42105269e-01</_>
    <_>
      8.18713427e-01 8.30409348e-01 8.24561417e-01 8.18713427e-01
      7.95321643e-01 7.95321643e-01 8.12865496e-01 8.07017565e-01
      8.12865496e-01 8.42105269e-01 8.24561417e-01 8.18713427e-01
      8.01169574e-01 7.95321643e-01 8.01169574e-01 8.07017565e-01
      8.18713427e-01 8.30409348e-01 8.36257339e-01 8.24561417e-01
      8.07017565e-01 8.18713427e-01 8.36257339e-01 8.24561417e-01
      8.24561417e-01 8.18713427e-01 8.18713427e-01 8.18713427e-01
      8.18713427e-01 8.24561417e-01 8.07017565e-01 8.12865496e-01
      8.30409348e-01 8.24561417e-01 8.12865496e-01 8.12865496e-01
      8.07017565e-01 8.07017565e-01 8.24561417e-01 8.12865496e-01
      8.24561417e-01 8.18713427e-01 8.24561417e-01 8.24561417e-01
      8.07017565e-01 8.12865496e-01 8.07017565e-01 8.12865496e-01
      8.24561417e-01 8.12865496e-01 8.30409348e-01 8.36257339e-01
      8.18713427e-01 8.24561417e-01 8.07017565e-01 8.07017565e-01
      8.18713427e-01 8.24561417e-01 8.24561417e-01 8.18713427e-01
      8.24561417e-01 8.36257339e-01 8.12865496e-01 8.12865496e-01
      7.95321643e-01 7.89473712e-01 8.12865496e-01 8.24561417e-01
      8.24561417e-01 8.24561417e-01 8.01169574e-01 8.24561417e-01
      8.18713427e-01 8.12865496e-01 7.89473712e-01 7.89473712e-01
      8.12865496e-01 8.30409348e-01 8.24561417e-01 8.18713427e-01
      7.95321643e-01 8.18713427e-01 8.36257339e-01 8.18713427e-01
      8.07017565e-01 8.01169574e-01 8.36257339e-01 8.47953200e-01
      8.36257339e-01 8.18713427e-01 8.12865496e-01 8.24561417e-01
      8.30409348e-01 8.07017565e-01 8.07017565e-01 8.01169574e-01
      8.24561417e-01 8.36257339e-01 8.24561417e-01 8.12865496e-01</_>
    <_>
      8.88888896e-01 8.94736826e-01 9.00584817e-01 9.00584817e-01
      8.47953200e-01 8.83040965e-01 8.88888896e-01 8.94736826e-01
      9.00584817e-01 8.88888896e-01 8.88888896e-01 8.88888896e-01
      8.94736826e-01 8.83040965e-01 8.94736826e-01 8.83040965e-01
      8.77192974e-01 8.83040965e-01 8.94736826e-01 8.88888896e-01
      8.94736826e-01 9.00584817e-01 9.12280679e-01 9.00584817e-01
      8.88888896e-01 8.59649122e-01 8.77192974e-01 8.88888896e-01
      9.00584817e-01 8.94736826e-01 9.00584817e-01 9.12280679e-01
      9.00584817e-01 8.77192974e-01 8.77192974e-01 8.71345043e-01
      8.83040965e-01 8.94736826e-01 9.06432748e-01 8.88888896e-01
      8.88888896e-01 8.94736826e-01 8.83040965e-01 8.94736826e-01
      8.94736826e-01 8.88888896e-01 8.77192974e-01 8.83040965e-01
      8.94736826e-01 8.88888896e-01 8.94736826e-01 9.00584817e-01
      8.88888896e-01 8.88888896e-01 8.88888896e-01 8.94736826e-01
      8.83040965e-01 8.88888896e-01 9.00584817e-01 8.94736826e-01
      8.94736826e-01 8.94736826e-01 8.94736826e-01 8.83040965e-01
      8.88888896e-01 8.94736826e-01 8.83040965e-01 8.83040965e-01
      9.00584817e-01 8.94736826e-01 8.83040965e-01 8.94736826e-01
      8.94736826e-01 8.88888896e-01 9.00584817e-01 8.94736826e-01
      8.83040965e-01 8.83040965e-01 8.94736826e-01 8.88888896e-01
      8.77192974e-01 8.94736826e-01 9.12280679e-01 9.12280679e-01
      9.12280679e-01 8.94736826e-01 8.83040965e-01 8.88888896e-01
      8.94736826e-01 8.88888896e-01 8.83040965e-01 8.94736826e-01
      9.23976600e-01 9.23976600e-01 9.06432748e-01 9.00584817e-01
      8.88888896e-01 8.88888896e-01 8.88888896e-01 8.88888896e-01</_>
    <_>
      8.36257339e-01 8.30409348e-01 8.30409348e-01 8.47953200e-01
      8.59649122e-01 8.42105269e-01 8.42105269e-01 8.30409348e-01
      8.30409348e-01 8.53801191e-01 8.36257339e-01 8.42105269e-01
      8.47953200e-01 8.53801191e-01 8.47953200e-01 8.42105269e-01
      8.47953200e-01 8.24561417e-01 8.30409348e-01 8.59649122e-01
      8.42105269e-01 8.47953200e-01 8.47953200e-01 8.42105269e-01
      8.42105269e-01 8.47953200e-01 8.47953200e-01 8.24561417e-01
      8.36257339e-01 8.59649122e-01 8.30409348e-01 8.30409348e-01
      8.36257339e-01 8.42105269e-01 8.47953200e-01 8.53801191e-01
      8.42105269e-01 8.30409348e-01 8.36257339e-01 8.59649122e-01
      8.30409348e-01 8.36257339e-01 8.53801191e-01 8.59649122e-01
      8.65497053e-01 8.59649122e-01 8.53801191e-01 8.53801191e-01
      8.53801191e-01 8.59649122e-01 8.30409348e-01 8.24561417e-01
      8.42105269e-01 8.59649122e-01 8.53801191e-01 8.42105269e-01
      8.18713427e-01 8.36257339e-01 8.47953200e-01 8.65497053e-01
      8.42105269e-01 8.36257339e-01 8.36257339e-01 8.36257339e-01
      8.36257339e-01 8.47953200e-01 8.42105269e-01 8.42105269e-01
      8.47953200e-01 8.59649122e-01 8.59649122e-01 8.53801191e-01
      8.42105269e-01 8.36257339e-01 8.36257339e-01 8.36257339e-01
      8.53801191e-01 8.42105269e-01 8.42105269e-01 8.42105269e-01
      8.47953200e-01 8.36257339e-01 8.36257339e-01 8.47953200e-01
      8.47953200e-01 8.42105269e-01 8.47953200e-01 8.30409348e-01
      8.36257339e-01 8.47953200e-01 8.47953200e-01 8.42105269e-01
      8.42105269e-01 8.42105269e-01 8.42105269e-01 8.42105269e-01
      8.42105269e-01 8.36257339e-01 8.30409348e-01 8.36257339e-01</_>
    <_>
      8.71345043e-01 8.77192974e-01 8.83040965e-01 8.77192974e-01
      8.83040965e-01 8.88888896e-01 8.94736826e-01 9.12280679e-01
      9.06432748e-01 8.83040965e-01 8.77192974e-01 9.00584817e-01
      9.06432748e-01 8.83040965e-01 8.88888896e-01 8.83040965e-01
      8.88888896e-01 8.94736826e-01 8.83040965e-01 8.94736826e-01
      8.94736826e-01 9.06432748e-01 9.12280679e-01 9.00584817e-01
      8.83040965e-01 8.71345043e-01 8.94736826e-01 8.71345043e-01
      8.71345043e-01 8.83040965e-01 9.00584817e-01 9.06432748e-01
      9.12280679e-01 9.06432748e-01 8.88888896e-01 8.83040965e-01
      8.94736826e-01 8.59649122e-01 8.59649122e-01 8.83040965e-01
      8.83040965e-01 8.83040965e-01 8.94736826e-01 8.94736826e-01
      8.94736826e-01 8.94736826e-01 8.77192974e-01 8.71345043e-01
      8.59649122e-01 8.83040965e-01 8.65497053e-01 8.65497053e-01
      8.77192974e-01 8.83040965e-01 8.77192974e-01 8.83040965e-01
      8.83040965e-01 8.88888896e-01 8.83040965e-01 8.83040965e-01
      8.59649122e-01 8.71345043e-01 8.83040965e-01 8.83040965e-01
      8.71345043e-01 8.77192974e-01 9.00584817e-01 8.83040965e-01
      8.94736826e-01 8.94736826e-01 8.71345043e-01 8.88888896e-01
      8.88888896e-01 8.83040965e-01 8.88888896e-01 8.88888896e-01
      8.83040965e-01 8.53801191e-01 8.88888896e-01 8.83040965e-01
      8.94736826e-01 8.88888896e-01 8.77192974e-01 8.77192974e-01
      8.77192974e-01 8.71345043e-01 8.77192974e-01 8.83040965e-01
      8.83040965e-01 8.83040965e-01 8.88888896e-01 8.94736826e-01
      8.71345043e-01 8.47953200e-01 8.59649122e-01 8.83040965e-01
      8.94736826e-01 9.12280679e-01 9.06432748e-01 9.12280679e-01</_>
    <_>
      7.89473712e-01 7.71929801e-01 7.71929801e-01 7.71929801e-01
      7.71929801e-01 7.71929801e-01 7.71929801e-01 7.83625722e-01
      7.66081870e-01 7.89473712e-01 7.77777791e-01 7.89473712e-01
      7.77777791e-01 7.77777791e-01 7.77777791e-01 7.71929801e-01
      7.77777791e-01 8.07017565e-01 7.95321643e-01 7.60233939e-01
      7.83625722e-01 8.01169574e-01 7.83625722e-01 7.66081870e-01
      7.60233939e-01 7.66081870e-01 7.89473712e-01 7.89473712e-01
      7.89473712e-01 7.71929801e-01 7.89473712e-01 8.01169574e-01
      8.01169574e-01 7.83625722e-01 7.66081870e-01 7.71929801e-01
      7.95321643e-01 7.89473712e-01 7.83625722e-01 7.89473712e-01
      7.89473712e-01 7.95321643e-01 8.01169574e-01 7.89473712e-01
      7.77777791e-01 7.77777791e-01 7.95321643e-01 8.01169574e-01
      7.95321643e-01 7.77777791e-01 7.95321643e-01 8.07017565e-01
      8.01169574e-01 7.83625722e-01 7.77777791e-01 7.77777791e-01
      7.89473712e-01 8.01169574e-01 7.95321643e-01 7.83625722e-01
      8.07017565e-01 8.18713427e-01 8.12865496e-01 7.89473712e-01
      7.77777791e-01 7.83625722e-01 7.95321643e-01 7.95321643e-01
      8.01169574e-01 8.07017565e-01 8.07017565e-01 8.18713427e-01
      8.12865496e-01 7.95321643e-01 7.89473712e-01 7.95321643e-01
      8.07017565e-01 8.01169574e-01 8.12865496e-01 8.12865496e-01
      8.07017565e-01 8.18713427e-01 8.07017565e-01 8.01169574e-01
      7.89473712e-01 7.83625722e-01 8.07017565e-01 8.12865496e-01
      8.07017565e-01 7.95321643e-01 8.12865496e-01 8.18713427e-01
      7.89473712e-01 7.83625722e-01 7.77777791e-01 7.83625722e-01
      8.07017565e-01 8.07017565e-01 8.07017565e-01 7.71929801e-01</_>
    <_>
      7.83625722e-01 7.71929801e-01 7.71929801e-01 7.54385948e-01
      7.60233939e-01 7.77777791e-01 7.95321643e-01 7.95321643e-01
      7.71929801e-01 7.60233939e-01 7.83625722e-01 7.83625722e-01
      7.71929801e-01 7.83625722e-01 7.71929801e-01 7.71929801e-01
      7.83625722e-01 7.83625722e-01 7.66081870e-01 7.54385948e-01
      8.01169574e-01 7.89473712e-01 7.77777791e-01 8.07017565e-01
      7.89473712e-01 7.83625722e-01 7.83625722e-01 7.83625722e-01
      7.71929801e-01 7.71929801e-01 7.83625722e-01 7.77777791e-01
      7.95321643e-01 8.01169574e-01 7.83625722e-01 7.83625722e-01
      7.89473712e-01 7.89473712e-01 7.95321643e-01 7.95321643e-01
      7.71929801e-01 7.77777791e-01 7.89473712e-01 7.83625722e-01
      7.83625722e-01 7.77777791e-01 7.95321643e-01 7.89473712e-01
      7.77777791e-01 7.60233939e-01 7.89473712e-01 7.83625722e-01
      7.83625722e-01 7.66081870e-01 7.71929801e-01 7.66081870e-01
      7.77777791e-01 7.77777791e-01 7.77777791e-01 7.71929801e-01
      7.77777791e-01 7.77777791e-01 7.83625722e-01 7.83625722e-01
      7.77777791e-01 7.77777791e-01 7.71929801e-01 7.77777791e-01
      7.83625722e-01 7.83625722e-01 7.83625722e-01 7.83625722e-01
      7.89473712e-01 7.95321643e-01 7.83625722e-01 7.89473712e-01
      7.89473712e-01 7.83625722e-01 7.77777791e-01 7.89473712e-01
      7.89473712e-01 8.01169574e-01 7.95321643e-01 7.89473712e-01
      7.83625722e-01 7.89473712e-01 7.95321643e-01 7.89473712e-01
      7.83625722e-01 7.95321643e-01 7.83625722e-01 8.01169574e-01
      8.01169574e-01 7.71929801e-01 7.77777791e-01 7.83625722e-01
      7.95321643e-01 8.01169574e-01 7.89473712e-01 7.95321643e-01</_>
    <_>
      7.48538017e-01 7.48538017e-01 7.42690086e-01 7.42690086e-01
      7.60233939e-01 7.66081870e-01 7.66081870e-01 7.60233939e-01
      7.60233939e-01 7.54385948e-01 7.42690086e-01 7.48538017e-01
      7.42690086e-01 7.54385948e-01 7.71929801e-01 7.66081870e-01
      7.54385948e-01 7.54385948e-01 7.60233939e-01 7.54385948e-01
      7.54385948e-01 7.54385948e-01 7.48538017e-01 7.54385948e-01
      7.66081870e-01 7.54385948e-01 7.36842096e-01 7.42690086e-01
      7.60233939e-01 7.54385948e-01 7.66081870e-01 7.66081870e-01
      7.54385948e-01 7.48538017e-01 7.54385948e-01 7.48538017e-01
      7.42690086e-01 7.36842096e-01 7.54385948e-01 7.60233939e-01
      7.48538017e-01 7.54385948e-01 7.48538017e-01 7.48538017e-01
      7.54385948e-01 7.60233939e-01 7.54385948e-01 7.42690086e-01
      7.48538017e-01 7.54385948e-01 7.36842096e-01 7.48538017e-01
      7.42690086e-01 7.42690086e-01 7.60233939e-01 7.71929801e-01
      7.54385948e-01 7.36842096e-01 7.25146174e-01 7.36842096e-01
      7.54385948e-01 7.48538017e-01 7.36842096e-01 7.42690086e-01
      7.66081870e-01 7.66081870e-01 7.60233939e-01 7.48538017e-01
      7.36842096e-01 7.42690086e-01 7.42690086e-01 7.54385948e-01
      7.60233939e-01 7.60233939e-01 7.66081870e-01 7.66081870e-01
      7.83625722e-01 7.60233939e-01 7.42690086e-01 7.48538017e-01
      7.66081870e-01 7.71929801e-01 7.60233939e-01 7.54385948e-01
      7.66081870e-01 7.71929801e-01 7.71929801e-01 7.54385948e-01
      7.54385948e-01 7.30994165e-01 7.66081870e-01 7.60233939e-01
      7.60233939e-01 7.60233939e-01 7.66081870e-01 7.71929801e-01
      7.60233939e-01 7.60233939e-01 7.54385948e-01 7.42690086e-01</_>
    <_>
      8.47953200e-01 8.42105269e-01 8.36257339e-01 8.24561417e-01
      8.24561417e-01 8.30409348e-01 8.42105269e-01 8.42105269e-01
      8.42105269e-01 8.53801191e-01 8.65497053e-01 8.30409348e-01
      8.12865496e-01 8.30409348e-01 8.36257339e-01 8.42105269e-01
      8.42105269e-01 8.42105269e-01 8.42105269e-01 8.30409348e-01
      8.36257339e-01 8.30409348e-01 8.24561417e-01 8.53801191e-01
      8.42105269e-01 8.36257339e-01 8.47953200e-01 8.42105269e-01
      8.30409348e-01 8.36257339e-01 8.53801191e-01 8.42105269e-01
      8.24561417e-01 8.42105269e-01 8.53801191e-01 8.47953200e-01
      8.36257339e-01 8.30409348e-01 8.24561417e-01 8.24561417e-01
      8.36257339e-01 8.36257339e-01 8.24561417e-01 8.24561417e-01
      8.42105269e-01 8.42105269e-01 8.42105269e-01 8.30409348e-01
      8.18713427e-01 8.30409348e-01 8.36257339e-01 8.30409348e-01
      8.30409348e-01 8.24561417e-01 8.36257339e-01 8.42105269e-01
      8.47953200e-01 8.36257339e-01 8.36257339e-01 8.47953200e-01
      8.53801191e-01 8.42105269e-01 8.30409348e-01 8.30409348e-01
      8.42105269e-01 8.47953200e-01 8.47953200e-01 8.42105269e-01
      8.47953200e-01 8.53801191e-01 8.42105269e-01 8.53801191e-01
      8.47953200e-01 8.30409348e-01 8.47953200e-01 8.42105269e-01
      8.36257339e-01 8.36257339e-01 8.42105269e-01 8.47953200e-01
      8.18713427e-01 8.36257339e-01 8.42105269e-01 8.42105269e-01
      8.47953200e-01 8.36257339e-01 8.42105269e-01 8.53801191e-01
      8.53801191e-01 8.42105269e-01 8.24561417e-01 8.30409348e-01
      8.18713427e-01 8.42105269e-01 8.30409348e-01 8.36257339e-01
      8.30409348e-01 8.47953200e-01 8.65497053e-01 8.47953200e-01</_>
    <_>
      8.18713427e-01 8.01169574e-01 8.01169574e-01 8.07017565e-01
      8.07017565e-01 8.18713427e-01 8.24561417e-01 8.18713427e-01
      8.18713427e-01 8.12865496e-01 8.07017565e-01 7.89473712e-01
      8.01169574e-01 8.07017565e-01 8.12865496e-01 8.18713427e-01
      8.12865496e-01 8.12865496e-01 8.18713427e-01 8.24561417e-01
      7.95321643e-01 7.77777791e-01 7.95321643e-01 8.12865496e-01
      8.12865496e-01 8.07017565e-01 8.07017565e-01 8.12865496e-01
      8.18713427e-01 8.18713427e-01 8.01169574e-01 7.95321643e-01
      7.83625722e-01 8.01169574e-01 8.01169574e-01 8.01169574e-01
      8.07017565e-01 8.12865496e-01 8.12865496e-01 8.12865496e-01
      8.01169574e-01 8.12865496e-01 7.95321643e-01 8.01169574e-01
      8.01169574e-01 8.01169574e-01 8.12865496e-01 8.12865496e-01
      8.07017565e-01 8.07017565e-01 8.01169574e-01 8.18713427e-01
      8.12865496e-01 8.07017565e-01 8.12865496e-01 8.07017565e-01
      8.12865496e-01 8.18713427e-01 8.18713427e-01 8.18713427e-01
      8.07017565e-01 8.24561417e-01 8.12865496e-01 8.07017565e-01
      8.01169574e-01 8.01169574e-01 8.07017565e-01 8.24561417e-01
      8.36257339e-01 8.24561417e-01 8.18713427e-01 8.24561417e-01
      7.95321643e-01 7.95321643e-01 7.95321643e-01 8.01169574e-01
      8.12865496e-01 8.12865496e-01 8.18713427e-01 8.12865496e-01
      8.12865496e-01 8.07017565e-01 7.95321643e-01 7.95321643e-01
      7.95321643e-01 8.12865496e-01 8.24561417e-01 8.12865496e-01
      8.01169574e-01 8.07017565e-01 8.01169574e-01 8.01169574e-01
      7.89473712e-01 7.71929801e-01 7.77777791e-01 8.01169574e-01
      8.07017565e-01 8.07017565e-01 8.18713427e-01 8.30409348e-01</_>
    <_>
      8.01169574e-01 8.12865496e-01 8.01169574e-01 7.83625722e-01
      7.83625722e-01 7.95321643e-01 7.89473712e-01 8.01169574e-01
      7.89473712e-01 7.89473712e-01 8.07017565e-01 8.01169574e-01
      7.89473712e-01 7.77777791e-01 7.83625722e-01 7.89473712e-01
      7.89473712e-01 7.95321643e-01 7.95321643e-01 7.89473712e-01
      7.83625722e-01 7.77777791e-01 7.77777791e-01 7.77777791e-01
      7.83625722e-01 7.83625722e-01 7.89473712e-01 8.01169574e-01
      7.89473712e-01 7.89473712e-01 7.83625722e-01 7.71929801e-01
      7.60233939e-01 7.60233939e-01 7.71929801e-01 7.83625722e-01
      7.83625722e-01 7.77777791e-01 7.71929801e-01 7.83625722e-01
      7.95321643e-01 7.89473712e-01 7.77777791e-01 7.71929801e-01
      7.71929801e-01 7.83625722e-01 7.95321643e-01 7.89473712e-01
      7.89473712e-01 8.01169574e-01 8.01169574e-01 8.01169574e-01
      7.89473712e-01 7.77777791e-01 7.77777791e-01 7.83625722e-01
      7.71929801e-01 7.71929801e-01 8.07017565e-01 8.12865496e-01
      8.01169574e-01 7.95321643e-01 7.83625722e-01 7.95321643e-01
      8.07017565e-01 8.01169574e-01 7.89473712e-01 7.89473712e-01
      7.83625722e-01 7.77777791e-01 7.83625722e-01 7.83625722e-01
      7.71929801e-01 7.66081870e-01 7.77777791e-01 7.95321643e-01
      8.18713427e-01 8.07017565e-01 7.89473712e-01 8.01169574e-01
      7.89473712e-01 8.01169574e-01 7.83625722e-01 7.66081870e-01
      7.71929801e-01 7.95321643e-01 8.18713427e-01 8.18713427e-01
      8.24561417e-01 8.01169574e-01 7.95321643e-01 7.95321643e-01
      7.89473712e-01 7.77777791e-01 7.71929801e-01 7.83625722e-01
      7.95321643e-01 8.07017565e-01 8.24561417e-01 8.01169574e-01</_>
    <_>
      7.36842096e-01 7.36842096e-01 7.42690086e-01 7.54385948e-01
      7.54385948e-01 7.48538017e-01 7.48538017e-01 7.42690086e-01
      7.42690086e-01 7.54385948e-01 7.42690086e-01 7.36842096e-01
      7.42690086e-01 7.48538017e-01 7.48538017e-01 7.60233939e-01
      7.60233939e-01 7.60233939e-01 7.48538017e-01 7.54385948e-01
      7.42690086e-01 7.42690086e-01 7.48538017e-01 7.54385948e-01
      7.54385948e-01 7.66081870e-01 7.77777791e-01 7.48538017e-01
      7.54385948e-01 7.66081870e-01 7.36842096e-01 7.30994165e-01
      7.42690086e-01 7.48538017e-01 7.42690086e-01 7.36842096e-01
      7.48538017e-01 7.54385948e-01 7.66081870e-01 7.71929801e-01
      7.48538017e-01 7.36842096e-01 7.48538017e-01 7.48538017e-01
      7.42690086e-01 7.48538017e-01 7.19298244e-01 7.48538017e-01
      7.60233939e-01 7.71929801e-01 7.48538017e-01 7.42690086e-01
      7.42690086e-01 7.48538017e-01 7.54385948e-01 7.30994165e-01
      7.42690086e-01 7.54385948e-01 7.60233939e-01 7.77777791e-01
      7.42690086e-01 7.42690086e-01 7.36842096e-01 7.54385948e-01
      7.71929801e-01 7.48538017e-01 7.30994165e-01 7.42690086e-01
      7.54385948e-01 7.66081870e-01 7.30994165e-01 7.30994165e-01
      7.42690086e-01 7.60233939e-01 7.83625722e-01 7.60233939e-01
      7.48538017e-01 7.71929801e-01 7.60233939e-01 7.54385948e-01
      7.36842096e-01 7.30994165e-01 7.36842096e-01 7.54385948e-01
      7.66081870e-01 7.60233939e-01 7.60233939e-01 7.60233939e-01
      7.66081870e-01 7.54385948e-01 7.36842096e-01 7.30994165e-01
      7.36842096e-01 7.54385948e-01 7.60233939e-01 7.60233939e-01
      7.60233939e-01 7.48538017e-01 7.60233939e-01 7.60233939e-01</_>
    <_>
      7.89473712e-01 8.07017565e-01 7.83625722e-01 7.95321643e-01
      8.01169574e-01 7.95321643e-01 7.95321643e-01 8.07017565e-01
      8.18713427e-01 8.01169574e-01 7.89473712e-01 8.01169574e-01
      7.89473712e-01 8.01169574e-01 8.07017565e-01 7.95321643e-01
      7.89473712e-01 8.01169574e-01 8.12865496e-01 7.95321643e-01
      7.83625722e-01 8.18713427e-01 8.12865496e-01 8.07017565e-01
      8.07017565e-01 7.95321643e-01 7.95321643e-01 8.01169574e-01
      7.95321643e-01 7.95321643e-01 7.95321643e-01 8.24561417e-01
      8.12865496e-01 7.95321643e-01 7.89473712e-01 7.83625722e-01
      7.89473712e-01 8.01169574e-01 8.01169574e-01 7.95321643e-01
      8.01169574e-01 8.18713427e-01 7.95321643e-01 7.77777791e-01
      7.83625722e-01 7.89473712e-01 7.77777791e-01 7.89473712e-01
      8.07017565e-01 8.01169574e-01 8.01169574e-01 8.24561417e-01
      8.07017565e-01 7.83625722e-01 7.89473712e-01 8.01169574e-01
      7.83625722e-01 7.89473712e-01 8.24561417e-01 8.07017565e-01
      8.01169574e-01 8.01169574e-01 8.12865496e-01 7.89473712e-01
      7.89473712e-01 8.01169574e-01 8.07017565e-01 8.07017565e-01
      8.18713427e-01 8.07017565e-01 7.77777791e-01 7.89473712e-01
      8.18713427e-01 8.07017565e-01 7.95321643e-01 8.01169574e-01
      8.07017565e-01 8.12865496e-01 8.30409348e-01 8.30409348e-01
      7.89473712e-01 7.95321643e-01 8.01169574e-01 8.01169574e-01
      7.95321643e-01 7.95321643e-01 7.95321643e-01 7.95321643e-01
      8.01169574e-01 8.18713427e-01 7.83625722e-01 8.01169574e-01
      7.89473712e-01 7.89473712e-01 7.95321643e-01 7.95321643e-01
      7.89473712e-01 7.89473712e-01 7.95321643e-01 8.01169574e-01</_>
    <_>
      5.73099434e-01 5.96491218e-01 5.96491218e-01 5.90643287e-01
      6.02339208e-01 5.90643287e-01 5.96491218e-01 5.90643287e-01
      5.90643287e-01 5.96491218e-01 5.78947365e-01 5.90643287e-01
      5.96491218e-01 5.84795296e-01 5.84795296e-01 5.90643287e-01
      6.08187139e-01 5.96491218e-01 5.90643287e-01 5.96491218e-01
      5.67251444e-01 5.73099434e-01 5.84795296e-01 5.90643287e-01
      5.90643287e-01 5.84795296e-01 5.96491218e-01 5.90643287e-01
      5.90643287e-01 5.90643287e-01 5.73099434e-01 5.73099434e-01
      5.84795296e-01 5.96491218e-01 5.90643287e-01 5.78947365e-01
      5.78947365e-01 5.84795296e-01 6.02339208e-01 6.02339208e-01
      5.90643287e-01 5.90643287e-01 5.90643287e-01 5.90643287e-01
      5.84795296e-01 5.67251444e-01 5.73099434e-01 5.90643287e-01
      6.08187139e-01 6.14035070e-01 5.90643287e-01 5.96491218e-01
      5.90643287e-01 5.84795296e-01 5.84795296e-01 5.78947365e-01
      5.90643287e-01 5.96491218e-01 6.08187139e-01 6.02339208e-01
      5.84795296e-01 5.96491218e-01 5.96491218e-01 5.90643287e-01
      5.90643287e-01 5.96491218e-01 6.14035070e-01 5.90643287e-01
      5.96491218e-01 6.02339208e-01 5.73099434e-01 5.90643287e-01
      6.02339208e-01 5.96491218e-01 5.96491218e-01 5.96491218e-01
      6.02339208e-01 5.84795296e-01 5.96491218e-01 6.08187139e-01
      5.67251444e-01 5.78947365e-01 5.90643287e-01 5.84795296e-01
      5.84795296e-01 5.84795296e-01 5.67251444e-01 5.73099434e-01
      5.96491218e-01 6.08187139e-01 5.67251444e-01 5.67251444e-01
      5.73099434e-01 5.78947365e-01 5.90643287e-01 6.08187139e-01
      5.78947365e-01 5.78947365e-01 5.84795296e-01 6.08187139e-01</_>
    <_>
      5.14619887e-01 5.08771956e-01 5.02923965e-01 5.08771956e-01
      5.26315808e-01 5.20467818e-01 5.20467818e-01 5.26315808e-01
      5.32163739e-01 5.26315808e-01 5.20467818e-01 5.08771956e-01
      5.08771956e-01 5.20467818e-01 5.20467818e-01 5.26315808e-01
      5.26315808e-01 5.26315808e-01 5.26315808e-01 5.32163739e-01
      5.32163739e-01 5.08771956e-01 5.20467818e-01 5.38011670e-01
      5.26315808e-01 5.08771956e-01 5.14619887e-01 5.20467818e-01
      5.32163739e-01 5.38011670e-01 5.32163739e-01 5.26315808e-01
      5.38011670e-01 5.49707592e-01 5.49707592e-01 5.14619887e-01
      5.08771956e-01 5.26315808e-01 5.32163739e-01 5.26315808e-01
      5.26315808e-01 5.38011670e-01 5.26315808e-01 5.43859661e-01
      5.38011670e-01 5.32163739e-01 5.26315808e-01 5.26315808e-01
      5.38011670e-01 5.43859661e-01 5.26315808e-01 5.26315808e-01
      5.38011670e-01 5.26315808e-01 5.32163739e-01 5.43859661e-01
      5.32163739e-01 5.26315808e-01 5.43859661e-01 5.61403513e-01
      5.43859661e-01 5.32163739e-01 5.61403513e-01 5.38011670e-01
      5.38011670e-01 5.49707592e-01 5.43859661e-01 5.43859661e-01
      5.43859661e-01 5.49707592e-01 5.49707592e-01 5.49707592e-01
      5.67251444e-01 5.38011670e-01 5.49707592e-01 5.55555582e-01
      5.61403513e-01 5.49707592e-01 5.38011670e-01 5.43859661e-01
      5.43859661e-01 5.55555582e-01 5.55555582e-01 5.32163739e-01
      5.55555582e-01 5.61403513e-01 5.61403513e-01 5.49707592e-01
      5.49707592e-01 5.55555582e-01 5.43859661e-01 5.43859661e-01
      5.43859661e-01 5.26315808e-01 5.49707592e-01 5.55555582e-01
      5.55555582e-01 5.55555582e-01 5.61403513e-01 5.67251444e-01</_>
    <_>
      5.61403513e-01 5.49707592e-01 5.55555582e-01 5.26315808e-01
      5.26315808e-01 5.32163739e-01 5.38011670e-01 5.49707592e-01
      5.49707592e-01 5.32163739e-01 5.55555582e-01 5.43859661e-01
      5.55555582e-01 5.49707592e-01 5.49707592e-01 5.32163739e-01
      5.26315808e-01 5.49707592e-01 5.61403513e-01 5.43859661e-01
      5.49707592e-01 5.55555582e-01 5.49707592e-01 5.55555582e-01
      5.43859661e-01 5.32163739e-01 5.26315808e-01 5.43859661e-01
      5.61403513e-01 5.55555582e-01 5.49707592e-01 5.55555582e-01
      5.55555582e-01 5.49707592e-01 5.43859661e-01 5.38011670e-01
      5.38011670e-01 5.49707592e-01 5.67251444e-01 5.67251444e-01
      5.43859661e-01 5.55555582e-01 5.67251444e-01 5.49707592e-01
      5.49707592e-01 5.55555582e-01 5.61403513e-01 5.67251444e-01
      5.67251444e-01 5.78947365e-01 5.32163739e-01 5.49707592e-01
      5.61403513e-01 5.49707592e-01 5.43859661e-01 5.61403513e-01
      5.73099434e-01 5.73099434e-01 5.73099434e-01 5.78947365e-01
      5.32163739e-01 5.43859661e-01 5.61403513e-01 5.49707592e-01
      5.43859661e-01 5.49707592e-01 5.55555582e-01 5.67251444e-01
      5.78947365e-01 5.73099434e-01 5.67251444e-01 5.73099434e-01
      5.67251444e-01 5.67251444e-01 5.49707592e-01 5.49707592e-01
      5.55555582e-01 5.67251444e-01 5.90643287e-01 5.78947365e-01
      5.73099434e-01 5.84795296e-01 5.67251444e-01 5.61403513e-01
      5.55555582e-01 5.55555582e-01 5.61403513e-01 5.73099434e-01
      5.90643287e-01 5.84795296e-01 5.73099434e-01 6.08187139e-01
      6.02339208e-01 5.61403513e-01 5.61403513e-01 5.61403513e-01
      5.55555582e-01 5.55555582e-01 5.67251444e-01 5.84795296e-01</_>
    <_>
      8.53801191e-01 8.42105269e-01 8.36257339e-01 8.30409348e-01
      8.53801191e-01 8.65497053e-01 8.71345043e-01 8.65497053e-01
      8.47953200e-01 8.53801191e-01 8.59649122e-01 8.59649122e-01
      8.42105269e-01 8.30409348e-01 8.42105269e-01 8.42105269e-01
      8.47953200e-01 8.47953200e-01 8.36257339e-01 8.53801191e-01
      8.71345043e-01 8.71345043e-01 8.47953200e-01 8.59649122e-01
      8.47953200e-01 8.47953200e-01 8.36257339e-01 8.36257339e-01
      8.53801191e-01 8.53801191e-01 8.59649122e-01 8.59649122e-01
      8.42105269e-01 8.59649122e-01 8.59649122e-01 8.59649122e-01
      8.53801191e-01 8.53801191e-01 8.59649122e-01 8.53801191e-01
      8.42105269e-01 8.36257339e-01 8.36257339e-01 8.47953200e-01
      8.53801191e-01 8.53801191e-01 8.59649122e-01 8.65497053e-01
      8.65497053e-01 8.59649122e-01 8.42105269e-01 8.42105269e-01
      8.24561417e-01 8.30409348e-01 8.36257339e-01 8.42105269e-01
      8.59649122e-01 8.71345043e-01 8.65497053e-01 8.65497053e-01
      8.65497053e-01 8.53801191e-01 8.12865496e-01 8.24561417e-01
      8.30409348e-01 8.30409348e-01 8.42105269e-01 8.53801191e-01
      8.59649122e-01 8.59649122e-01 8.71345043e-01 8.42105269e-01
      8.12865496e-01 8.30409348e-01 8.47953200e-01 8.36257339e-01
      8.36257339e-01 8.42105269e-01 8.47953200e-01 8.42105269e-01
      8.59649122e-01 8.24561417e-01 8.18713427e-01 8.36257339e-01
      8.53801191e-01 8.47953200e-01 8.47953200e-01 8.47953200e-01
      8.42105269e-01 8.36257339e-01 8.59649122e-01 8.24561417e-01
      8.24561417e-01 8.30409348e-01 8.53801191e-01 8.53801191e-01
      8.53801191e-01 8.47953200e-01 8.42105269e-01 8.47953200e-01</_>
    <_>
      8.18713427e-01 8.07017565e-01 8.07017565e-01 8.18713427e-01
      8.18713427e-01 8.07017565e-01 8.07017565e-01 8.18713427e-01
      8.12865496e-01 8.18713427e-01 8.01169574e-01 8.07017565e-01
      8.18713427e-01 8.18713427e-01 8.12865496e-01 8.07017565e-01
      8.12865496e-01 8.24561417e-01 8.18713427e-01 8.07017565e-01
      8.07017565e-01 8.18713427e-01 8.12865496e-01 8.01169574e-01
      8.07017565e-01 8.12865496e-01 8.01169574e-01 8.18713427e-01
      8.12865496e-01 8.07017565e-01 8.12865496e-01 8.18713427e-01
      8.12865496e-01 8.07017565e-01 8.18713427e-01 8.30409348e-01
      8.12865496e-01 8.18713427e-01 8.18713427e-01 8.24561417e-01
      8.07017565e-01 8.01169574e-01 8.12865496e-01 8.30409348e-01
      8.42105269e-01 8.36257339e-01 8.24561417e-01 8.18713427e-01
      8.30409348e-01 8.36257339e-01 7.95321643e-01 7.95321643e-01
      8.01169574e-01 8.24561417e-01 8.42105269e-01 8.24561417e-01
      8.07017565e-01 8.18713427e-01 8.24561417e-01 8.18713427e-01
      8.12865496e-01 8.12865496e-01 8.12865496e-01 8.24561417e-01
      8.30409348e-01 8.18713427e-01 8.12865496e-01 8.24561417e-01
      8.18713427e-01 8.18713427e-01 8.18713427e-01 8.30409348e-01
      8.30409348e-01 8.30409348e-01 8.30409348e-01 8.24561417e-01
      8.18713427e-01 8.36257339e-01 8.24561417e-01 8.42105269e-01
      8.24561417e-01 8.18713427e-01 8.12865496e-01 8.12865496e-01
      8.18713427e-01 8.24561417e-01 7.95321643e-01 8.07017565e-01
      8.30409348e-01 8.42105269e-01 8.18713427e-01 8.24561417e-01
      8.12865496e-01 8.30409348e-01 8.47953200e-01 8.30409348e-01
      8.18713427e-01 8.12865496e-01 8.18713427e-01 8.36257339e-01</_>
    <_>
      5.38011670e-01 5.38011670e-01 5.26315808e-01 5.43859661e-01
      5.43859661e-01 5.20467818e-01 5.26315808e-01 5.43859661e-01
      5.26315808e-01 5.08771956e-01 5.43859661e-01 5.43859661e-01
      5.32163739e-01 5.43859661e-01 5.55555582e-01 5.26315808e-01
      5.26315808e-01 5.38011670e-01 5.32163739e-01 5.20467818e-01
      5.38011670e-01 5.43859661e-01 5.32163739e-01 5.43859661e-01
      5.61403513e-01 5.38011670e-01 5.26315808e-01 5.32163739e-01
      5.32163739e-01 5.26315808e-01 5.43859661e-01 5.55555582e-01
      5.49707592e-01 5.49707592e-01 5.67251444e-01 5.49707592e-01
      5.38011670e-01 5.26315808e-01 5.32163739e-01 5.38011670e-01
      5.55555582e-01 5.67251444e-01 5.61403513e-01 5.55555582e-01
      5.61403513e-01 5.55555582e-01 5.38011670e-01 5.26315808e-01
      5.38011670e-01 5.43859661e-01 5.61403513e-01 5.61403513e-01
      5.55555582e-01 5.43859661e-01 5.55555582e-01 5.55555582e-01
      5.32163739e-01 5.26315808e-01 5.32163739e-01 5.38011670e-01
      5.67251444e-01 5.67251444e-01 5.55555582e-01 5.38011670e-01
      5.43859661e-01 5.49707592e-01 5.38011670e-01 5.32163739e-01
      5.32163739e-01 5.38011670e-01 5.32163739e-01 5.43859661e-01
      5.55555582e-01 5.49707592e-01 5.38011670e-01 5.38011670e-01
      5.38011670e-01 5.26315808e-01 5.32163739e-01 5.38011670e-01
      5.32163739e-01 5.43859661e-01 5.49707592e-01 5.43859661e-01
      5.49707592e-01 5.32163739e-01 5.32163739e-01 5.26315808e-01
      5.32163739e-01 5.38011670e-01 5.43859661e-01 5.43859661e-01
      5.43859661e-01 5.49707592e-01 5.43859661e-01 5.43859661e-01
      5.38011670e-01 5.43859661e-01 5.43859661e-01 5.55555582e-01</_>
    <_>
      5.32163739e-01 5.38011670e-01 5.55555582e-01 5.55555582e-01
      5.38011670e-01 5.43859661e-01 5.38011670e-01 5.43859661e-01
      5.43859661e-01 5.61403513e-01 5.38011670e-01 5.38011670e-01
      5.49707592e-01 5.55555582e-01 5.55555582e-01 5.49707592e-01
      5.38011670e-01 5.55555582e-01 5.49707592e-01 5.61403513e-01
      5.32163739e-01 5.38011670e-01 5.49707592e-01 5.61403513e-01
      5.55555582e-01 5.55555582e-01 5.43859661e-01 5.61403513e-01
      5.61403513e-01 5.61403513e-01 5.32163739e-01 5.26315808e-01
      5.38011670e-01 5.67251444e-01 5.67251444e-01 5.49707592e-01
      5.43859661e-01 5.49707592e-01 5.55555582e-01 5.55555582e-01
      5.43859661e-01 5.49707592e-01 5.26315808e-01 5.38011670e-01
      5.49707592e-01 5.14619887e-01 5.26315808e-01 5.38011670e-01
      5.43859661e-01 5.55555582e-01 5.26315808e-01 5.32163739e-01
      5.43859661e-01 5.55555582e-01 5.38011670e-01 5.26315808e-01
      5.43859661e-01 5.38011670e-01 5.38011670e-01 5.55555582e-01
      5.38011670e-01 5.38011670e-01 5.43859661e-01 5.67251444e-01
      5.61403513e-01 5.38011670e-01 5.55555582e-01 5.43859661e-01
      5.49707592e-01 5.61403513e-01 5.38011670e-01 5.26315808e-01
      5.43859661e-01 5.73099434e-01 5.61403513e-01 5.49707592e-01
      5.55555582e-01 5.49707592e-01 5.67251444e-01 5.73099434e-01
      5.26315808e-01 5.26315808e-01 5.38011670e-01 5.67251444e-01
      5.55555582e-01 5.43859661e-01 5.43859661e-01 5.43859661e-01
      5.61403513e-01 5.67251444e-01 5.32163739e-01 5.38011670e-01
      5.38011670e-01 5.49707592e-01 5.49707592e-01 5.55555582e-01
      5.38011670e-01 5.38011670e-01 5.43859661e-01 5.49707592e-01</_>
    <_>
      8.18713427e-01 8.12865496e-01 8.07017565e-01 8.12865496e-01
      8.12865496e-01 8.18713427e-01 8.24561417e-01 8.12865496e-01
      8.18713427e-01 8.30409348e-01 8.12865496e-01 8.07017565e-01
      8.01169574e-01 8.12865496e-01 8.18713427e-01 8.12865496e-01
      8.12865496e-01 8.07017565e-01 8.18713427e-01 8.30409348e-01
      8.12865496e-01 8.07017565e-01 8.01169574e-01 8.07017565e-01
      8.24561417e-01 8.18713427e-01 8.24561417e-01 8.07017565e-01
      8.07017565e-01 8.18713427e-01 8.30409348e-01 8.24561417e-01
      8.01169574e-01 8.01169574e-01 8.24561417e-01 8.24561417e-01
      8.24561417e-01 8.12865496e-01 8.07017565e-01 8.18713427e-01
      8.30409348e-01 8.30409348e-01 8.07017565e-01 7.95321643e-01
      8.12865496e-01 8.12865496e-01 8.07017565e-01 8.12865496e-01
      8.12865496e-01 8.18713427e-01 8.18713427e-01 8.24561417e-01
      8.18713427e-01 8.12865496e-01 8.18713427e-01 8.18713427e-01
      8.12865496e-01 8.12865496e-01 8.07017565e-01 8.01169574e-01
      8.24561417e-01 8.18713427e-01 8.18713427e-01 8.24561417e-01
      8.07017565e-01 8.07017565e-01 8.18713427e-01 8.18713427e-01
      8.12865496e-01 8.18713427e-01 8.18713427e-01 8.12865496e-01
      8.07017565e-01 8.01169574e-01 7.83625722e-01 8.07017565e-01
      8.42105269e-01 8.24561417e-01 8.18713427e-01 8.07017565e-01
      8.18713427e-01 8.12865496e-01 8.07017565e-01 8.01169574e-01
      8.18713427e-01 8.18713427e-01 8.30409348e-01 8.36257339e-01
      8.24561417e-01 8.36257339e-01 8.30409348e-01 8.12865496e-01
      8.07017565e-01 8.12865496e-01 8.18713427e-01 8.18713427e-01
      8.30409348e-01 8.42105269e-01 8.30409348e-01 8.18713427e-01</_>
    <_>
      5.73099434e-01 5.84795296e-01 5.78947365e-01 5.67251444e-01
      5.73099434e-01 5.90643287e-01 6.02339208e-01 5.90643287e-01
      5.96491218e-01 6.02339208e-01 5.96491218e-01 6.02339208e-01
      5.90643287e-01 5.78947365e-01 5.78947365e-01 5.90643287e-01
      5.96491218e-01 5.96491218e-01 6.02339208e-01 5.90643287e-01
      5.96491218e-01 5.96491218e-01 5.90643287e-01 5.78947365e-01
      5.73099434e-01 5.84795296e-01 5.90643287e-01 5.96491218e-01
      6.02339208e-01 5.84795296e-01 5.84795296e-01 5.78947365e-01
      5.78947365e-01 5.73099434e-01 5.73099434e-01 5.84795296e-01
      5.90643287e-01 5.96491218e-01 5.96491218e-01 5.84795296e-01
      5.84795296e-01 5.78947365e-01 5.73099434e-01 5.78947365e-01
      5.84795296e-01 5.90643287e-01 5.90643287e-01 5.96491218e-01
      5.90643287e-01 5.90643287e-01 5.96491218e-01 5.96491218e-01
      5.78947365e-01 5.78947365e-01 5.84795296e-01 5.90643287e-01
      5.96491218e-01 6.08187139e-01 6.02339208e-01 5.84795296e-01
      5.96491218e-01 5.96491218e-01 5.90643287e-01 5.78947365e-01
      5.78947365e-01 5.90643287e-01 6.08187139e-01 6.14035070e-01
      5.96491218e-01 5.78947365e-01 6.02339208e-01 5.84795296e-01
      5.84795296e-01 5.73099434e-01 5.73099434e-01 5.90643287e-01
      6.08187139e-01 6.14035070e-01 6.08187139e-01 5.90643287e-01
      5.84795296e-01 5.84795296e-01 5.84795296e-01 5.67251444e-01
      5.73099434e-01 5.96491218e-01 5.96491218e-01 5.90643287e-01
      6.02339208e-01 5.90643287e-01 5.78947365e-01 5.78947365e-01
      5.73099434e-01 5.73099434e-01 5.78947365e-01 5.90643287e-01
      5.96491218e-01 5.84795296e-01 5.84795296e-01 5.90643287e-01</_>
    <_>
      7.54385948e-01 7.42690086e-01 7.48538017e-01 7.48538017e-01
      7.60233939e-01 7.60233939e-01 7.54385948e-01 7.71929801e-01
      7.66081870e-01 7.66081870e-01 7.60233939e-01 7.42690086e-01
      7.48538017e-01 7.42690086e-01 7.48538017e-01 7.48538017e-01
      7.60233939e-01 7.77777791e-01 7.77777791e-01 7.66081870e-01
      7.48538017e-01 7.42690086e-01 7.42690086e-01 7.54385948e-01
      7.48538017e-01 7.42690086e-01 7.60233939e-01 7.83625722e-01
      7.77777791e-01 7.71929801e-01 7.60233939e-01 7.60233939e-01
      7.48538017e-01 7.54385948e-01 7.54385948e-01 7.42690086e-01
      7.42690086e-01 7.54385948e-01 7.66081870e-01 7.66081870e-01
      7.77777791e-01 7.48538017e-01 7.54385948e-01 7.66081870e-01
      7.71929801e-01 7.71929801e-01 7.54385948e-01 7.42690086e-01
      7.71929801e-01 7.77777791e-01 7.48538017e-01 7.54385948e-01
      7.66081870e-01 7.71929801e-01 7.54385948e-01 7.60233939e-01
      7.66081870e-01 7.60233939e-01 7.77777791e-01 7.60233939e-01
      7.19298244e-01 7.48538017e-01 7.60233939e-01 7.71929801e-01
      7.71929801e-01 7.66081870e-01 7.71929801e-01 7.71929801e-01
      7.66081870e-01 7.48538017e-01 7.42690086e-01 7.54385948e-01
      7.60233939e-01 7.77777791e-01 7.77777791e-01 7.66081870e-01
      7.60233939e-01 7.60233939e-01 7.60233939e-01 7.71929801e-01
      7.30994165e-01 7.42690086e-01 7.54385948e-01 7.66081870e-01
      7.66081870e-01 7.60233939e-01 7.54385948e-01 7.54385948e-01
      7.83625722e-01 7.89473712e-01 7.48538017e-01 7.71929801e-01
      7.60233939e-01 7.54385948e-01 7.60233939e-01 7.66081870e-01
      7.66081870e-01 7.54385948e-01 7.71929801e-01 7.71929801e-01</_>
    <_>
      7.60233939e-01 7.48538017e-01 7.30994165e-01 7.36842096e-01
      7.54385948e-01 7.60233939e-01 7.66081870e-01 7.60233939e-01
      7.48538017e-01 7.48538017e-01 7.54385948e-01 7.54385948e-01
      7.54385948e-01 7.36842096e-01 7.36842096e-01 7.42690086e-01
      7.48538017e-01 7.48538017e-01 7.48538017e-01 7.36842096e-01
      7.66081870e-01 7.66081870e-01 7.60233939e-01 7.42690086e-01
      7.36842096e-01 7.42690086e-01 7.48538017e-01 7.54385948e-01
      7.60233939e-01 7.48538017e-01 7.71929801e-01 7.71929801e-01
      7.60233939e-01 7.54385948e-01 7.60233939e-01 7.60233939e-01
      7.60233939e-01 7.60233939e-01 7.54385948e-01 7.48538017e-01
      7.60233939e-01 7.66081870e-01 7.54385948e-01 7.54385948e-01
      7.66081870e-01 7.71929801e-01 7.66081870e-01 7.60233939e-01
      7.54385948e-01 7.54385948e-01 7.60233939e-01 7.66081870e-01
      7.60233939e-01 7.54385948e-01 7.60233939e-01 7.60233939e-01
      7.60233939e-01 7.54385948e-01 7.54385948e-01 7.60233939e-01
      7.66081870e-01 7.66081870e-01 7.71929801e-01 7.60233939e-01
      7.54385948e-01 7.54385948e-01 7.60233939e-01 7.60233939e-01
      7.54385948e-01 7.54385948e-01 7.48538017e-01 7.48538017e-01
      7.77777791e-01 7.66081870e-01 7.71929801e-01 7.71929801e-01
      7.71929801e-01 7.71929801e-01 7.66081870e-01 7.42690086e-01
      7.42690086e-01 7.48538017e-01 7.60233939e-01 7.66081870e-01
      7.77777791e-01 7.71929801e-01 7.71929801e-01 7.66081870e-01
      7.48538017e-01 7.30994165e-01 7.60233939e-01 7.71929801e-01
      7.89473712e-01 7.60233939e-01 7.42690086e-01 7.54385948e-01
      7.71929801e-01 7.77777791e-01 7.71929801e-01 7.54385948e-01</_>
    <_>
      3.27485383e-01 3.33333343e-01 3.15789461e-01 3.15789461e-01
      3.09941530e-01 3.15789461e-01 3.15789461e-01 3.04093570e-01
      2.92397648e-01 2.98245609e-01 3.21637422e-01 3.27485383e-01
      3.21637422e-01 3.15789461e-01 3.09941530e-01 3.15789461e-01
      3.21637422e-01 3.15789461e-01 2.98245609e-01 2.98245609e-01
      3.21637422e-01 3.27485383e-01 3.21637422e-01 3.21637422e-01
      3.21637422e-01 3.27485383e-01 3.27485383e-01 3.15789461e-01
      3.04093570e-01 3.09941530e-01 3.27485383e-01 3.33333343e-01
      3.27485383e-01 3.27485383e-01 3.27485383e-01 3.27485383e-01
      3.21637422e-01 3.15789461e-01 3.09941530e-01 3.15789461e-01
      3.39181274e-01 3.45029235e-01 3.33333343e-01 3.27485383e-01
      3.21637422e-01 3.21637422e-01 3.27485383e-01 3.27485383e-01
      3.21637422e-01 3.15789461e-01 3.45029235e-01 3.50877196e-01
      3.33333343e-01 3.21637422e-01 3.21637422e-01 3.27485383e-01
      3.39181274e-01 3.45029235e-01 3.27485383e-01 3.21637422e-01
      3.50877196e-01 3.56725156e-01 3.39181274e-01 3.27485383e-01
      3.21637422e-01 3.33333343e-01 3.50877196e-01 3.50877196e-01
      3.33333343e-01 3.27485383e-01 3.50877196e-01 3.62573087e-01
      3.50877196e-01 3.39181274e-01 3.33333343e-01 3.39181274e-01
      3.50877196e-01 3.50877196e-01 3.45029235e-01 3.39181274e-01
      3.50877196e-01 3.56725156e-01 3.50877196e-01 3.50877196e-01
      3.45029235e-01 3.50877196e-01 3.45029235e-01 3.45029235e-01
      3.50877196e-01 3.50877196e-01 3.56725156e-01 3.45029235e-01
      3.33333343e-01 3.39181274e-01 3.45029235e-01 3.50877196e-01
      3.50877196e-01 3.45029235e-01 3.39181274e-01 3.50877196e-01</_>
    <_>
      4.85380113e-01 4.91228074e-01 4.97076035e-01 4.79532152e-01
      4.73684222e-01 4.85380113e-01 4.73684222e-01 4.85380113e-01
      4.91228074e-01 4.91228074e-01 4.97076035e-01 4.97076035e-01
      5.02923965e-01 5.02923965e-01 4.85380113e-01 4.79532152e-01
      4.67836261e-01 4.79532152e-01 4.97076035e-01 4.97076035e-01
      4.85380113e-01 4.85380113e-01 4.97076035e-01 5.02923965e-01
      4.85380113e-01 4.85380113e-01 4.61988300e-01 4.85380113e-01
      5.02923965e-01 4.97076035e-01 4.91228074e-01 4.97076035e-01
      4.97076035e-01 4.79532152e-01 4.79532152e-01 5.02923965e-01
      4.85380113e-01 4.97076035e-01 5.02923965e-01 4.97076035e-01
      5.08771956e-01 5.08771956e-01 5.02923965e-01 4.79532152e-01
      4.79532152e-01 5.08771956e-01 5.08771956e-01 5.02923965e-01
      4.97076035e-01 4.97076035e-01 5.14619887e-01 5.14619887e-01
      5.08771956e-01 4.91228074e-01 4.91228074e-01 5.08771956e-01
      5.14619887e-01 5.02923965e-01 4.97076035e-01 4.91228074e-01
      5.08771956e-01 5.14619887e-01 5.14619887e-01 5.14619887e-01
      5.14619887e-01 5.14619887e-01 5.14619887e-01 5.02923965e-01
      4.97076035e-01 5.08771956e-01 5.14619887e-01 5.20467818e-01
      5.20467818e-01 5.20467818e-01 5.20467818e-01 5.14619887e-01
      5.02923965e-01 5.02923965e-01 5.14619887e-01 5.26315808e-01
      5.14619887e-01 5.14619887e-01 5.08771956e-01 5.08771956e-01
      5.14619887e-01 4.97076035e-01 5.02923965e-01 5.08771956e-01
      5.02923965e-01 5.02923965e-01 5.14619887e-01 5.26315808e-01
      5.26315808e-01 5.08771956e-01 5.26315808e-01 5.08771956e-01
      5.20467818e-01 5.14619887e-01 5.08771956e-01 5.08771956e-01</_>
    <_>
      9.29824591e-01 9.35672522e-01 9.29824591e-01 9.12280679e-01
      9.35672522e-01 9.35672522e-01 9.35672522e-01 9.41520452e-01
      9.29824591e-01 9.29824591e-01 9.18128669e-01 9.35672522e-01
      9.35672522e-01 9.23976600e-01 9.23976600e-01 9.29824591e-01
      9.29824591e-01 9.23976600e-01 9.29824591e-01 9.35672522e-01
      9.12280679e-01 9.06432748e-01 9.00584817e-01 9.12280679e-01
      9.12280679e-01 9.23976600e-01 9.35672522e-01 9.18128669e-01
      9.18128669e-01 9.29824591e-01 9.18128669e-01 9.12280679e-01
      9.06432748e-01 9.18128669e-01 9.23976600e-01 9.41520452e-01
      9.23976600e-01 9.18128669e-01 9.23976600e-01 9.35672522e-01
      9.29824591e-01 9.29824591e-01 9.18128669e-01 9.18128669e-01
      9.23976600e-01 9.47368443e-01 9.23976600e-01 9.23976600e-01
      9.23976600e-01 9.35672522e-01 9.23976600e-01 9.35672522e-01
      9.29824591e-01 9.12280679e-01 9.06432748e-01 9.29824591e-01
      9.12280679e-01 9.29824591e-01 9.35672522e-01 9.23976600e-01
      9.06432748e-01 9.18128669e-01 9.29824591e-01 9.12280679e-01
      9.00584817e-01 9.18128669e-01 9.18128669e-01 9.35672522e-01
      9.41520452e-01 9.18128669e-01 8.94736826e-01 9.06432748e-01
      9.23976600e-01 9.12280679e-01 9.06432748e-01 9.29824591e-01
      9.35672522e-01 9.29824591e-01 9.41520452e-01 9.29824591e-01
      9.12280679e-01 9.18128669e-01 9.18128669e-01 9.06432748e-01
      9.06432748e-01 9.35672522e-01 9.35672522e-01 9.18128669e-01
      9.41520452e-01 9.41520452e-01 9.29824591e-01 9.23976600e-01
      9.18128669e-01 9.06432748e-01 9.06432748e-01 9.23976600e-01
      9.18128669e-01 9.29824591e-01 9.29824591e-01 9.29824591e-01</_>
    <_>
      8.42105269e-01 8.30409348e-01 8.24561417e-01 8.24561417e-01
      8.36257339e-01 8.24561417e-01 8.12865496e-01 8.12865496e-01
      8.24561417e-01 8.36257339e-01 8.36257339e-01 8.36257339e-01
      8.30409348e-01 8.24561417e-01 8.18713427e-01 8.18713427e-01
      8.24561417e-01 8.30409348e-01 8.12865496e-01 8.42105269e-01
      8.36257339e-01 8.36257339e-01 8.42105269e-01 8.42105269e-01
      8.30409348e-01 8.24561417e-01 8.24561417e-01 8.24561417e-01
      8.18713427e-01 8.36257339e-01 8.47953200e-01 8.30409348e-01
      8.30409348e-01 8.42105269e-01 8.36257339e-01 8.24561417e-01
      8.18713427e-01 8.12865496e-01 8.12865496e-01 8.30409348e-01
      8.36257339e-01 8.12865496e-01 8.12865496e-01 8.24561417e-01
      8.30409348e-01 8.30409348e-01 8.12865496e-01 8.12865496e-01
      8.12865496e-01 8.24561417e-01 8.30409348e-01 8.07017565e-01
      8.12865496e-01 8.18713427e-01 8.24561417e-01 8.36257339e-01
      8.30409348e-01 8.36257339e-01 8.18713427e-01 8.30409348e-01
      8.36257339e-01 8.18713427e-01 8.30409348e-01 8.30409348e-01
      8.18713427e-01 8.30409348e-01 8.47953200e-01 8.53801191e-01
      8.24561417e-01 8.42105269e-01 8.30409348e-01 8.30409348e-01
      8.36257339e-01 8.42105269e-01 8.30409348e-01 8.12865496e-01
      8.36257339e-01 8.47953200e-01 8.24561417e-01 8.42105269e-01
      8.12865496e-01 8.12865496e-01 8.12865496e-01 8.30409348e-01
      8.36257339e-01 8.18713427e-01 8.24561417e-01 8.36257339e-01
      8.18713427e-01 8.30409348e-01 8.30409348e-01 8.30409348e-01
      8.24561417e-01 8.12865496e-01 8.12865496e-01 8.30409348e-01
      8.36257339e-01 8.42105269e-01 8.18713427e-01 8.42105269e-01</_>
    <_>
      7.71929801e-01 7.60233939e-01 7.54385948e-01 7.54385948e-01
      7.60233939e-01 7.71929801e-01 7.77777791e-01 7.77777791e-01
      7.48538017e-01 7.48538017e-01 7.77777791e-01 7.66081870e-01
      7.60233939e-01 7.60233939e-01 7.66081870e-01 7.83625722e-01
      7.83625722e-01 7.77777791e-01 7.60233939e-01 7.71929801e-01
      7.71929801e-01 7.66081870e-01 7.71929801e-01 7.66081870e-01
      7.71929801e-01 7.83625722e-01 7.89473712e-01 7.89473712e-01
      7.77777791e-01 7.71929801e-01 7.71929801e-01 7.71929801e-01
      7.71929801e-01 7.60233939e-01 7.60233939e-01 7.77777791e-01
      7.95321643e-01 7.83625722e-01 7.77777791e-01 7.60233939e-01
      7.83625722e-01 7.83625722e-01 7.66081870e-01 7.54385948e-01
      7.54385948e-01 7.71929801e-01 7.83625722e-01 7.66081870e-01
      7.66081870e-01 7.66081870e-01 7.95321643e-01 7.77777791e-01
      7.60233939e-01 7.54385948e-01 7.60233939e-01 7.66081870e-01
      7.66081870e-01 7.60233939e-01 7.66081870e-01 7.77777791e-01
      7.95321643e-01 7.77777791e-01 7.71929801e-01 7.60233939e-01
      7.71929801e-01 7.77777791e-01 7.77777791e-01 7.77777791e-01
      7.71929801e-01 7.71929801e-01 7.83625722e-01 7.77777791e-01
      7.77777791e-01 7.71929801e-01 7.71929801e-01 7.77777791e-01
      7.83625722e-01 7.83625722e-01 7.77777791e-01 7.60233939e-01
      7.83625722e-01 7.77777791e-01 7.60233939e-01 7.60233939e-01
      7.77777791e-01 7.89473712e-01 7.83625722e-01 7.71929801e-01
      7.77777791e-01 7.71929801e-01 7.95321643e-01 7.89473712e-01
      7.54385948e-01 7.48538017e-01 7.71929801e-01 7.83625722e-01
      7.77777791e-01 7.66081870e-01 7.60233939e-01 7.54385948e-01</_>
    <_>
      7.71929801e-01 7.48538017e-01 7.42690086e-01 7.48538017e-01
      7.60233939e-01 7.66081870e-01 7.71929801e-01 7.60233939e-01
      7.36842096e-01 7.19298244e-01 7.89473712e-01 7.71929801e-01
      7.54385948e-01 7.54385948e-01 7.60233939e-01 7.60233939e-01
      7.54385948e-01 7.54385948e-01 7.60233939e-01 7.42690086e-01
      7.83625722e-01 7.77777791e-01 7.54385948e-01 7.48538017e-01
      7.60233939e-01 7.54385948e-01 7.54385948e-01 7.60233939e-01
      7.60233939e-01 7.48538017e-01 7.77777791e-01 7.83625722e-01
      7.66081870e-01 7.48538017e-01 7.48538017e-01 7.60233939e-01
      7.66081870e-01 7.54385948e-01 7.48538017e-01 7.48538017e-01
      7.71929801e-01 7.77777791e-01 7.77777791e-01 7.54385948e-01
      7.48538017e-01 7.54385948e-01 7.60233939e-01 7.48538017e-01
      7.30994165e-01 7.42690086e-01 7.77777791e-01 7.77777791e-01
      7.71929801e-01 7.60233939e-01 7.48538017e-01 7.42690086e-01
      7.54385948e-01 7.60233939e-01 7.36842096e-01 7.42690086e-01
      7.89473712e-01 7.89473712e-01 7.66081870e-01 7.60233939e-01
      7.60233939e-01 7.48538017e-01 7.48538017e-01 7.54385948e-01
      7.42690086e-01 7.36842096e-01 7.77777791e-01 7.83625722e-01
      7.54385948e-01 7.60233939e-01 7.77777791e-01 7.66081870e-01
      7.54385948e-01 7.54385948e-01 7.42690086e-01 7.36842096e-01
      7.66081870e-01 7.54385948e-01 7.48538017e-01 7.66081870e-01
      7.77777791e-01 7.71929801e-01 7.66081870e-01 7.60233939e-01
      7.48538017e-01 7.48538017e-01 7.77777791e-01 7.54385948e-01
      7.54385948e-01 7.54385948e-01 7.66081870e-01 7.66081870e-01
      7.60233939e-01 7.66081870e-01 7.71929801e-01 7.60233939e-01</_>
    <_>
      8.18713427e-01 8.07017565e-01 8.07017565e-01 8.18713427e-01
      8.24561417e-01 8.30409348e-01 8.18713427e-01 8.12865496e-01
      8.07017565e-01 8.07017565e-01 8.30409348e-01 8.18713427e-01
      8.07017565e-01 8.07017565e-01 8.12865496e-01 8.24561417e-01
      8.07017565e-01 8.07017565e-01 8.07017565e-01 8.07017565e-01
      8.30409348e-01 8.24561417e-01 8.12865496e-01 8.18713427e-01
      8.18713427e-01 8.24561417e-01 8.12865496e-01 8.07017565e-01
      8.07017565e-01 8.12865496e-01 8.24561417e-01 8.12865496e-01
      7.95321643e-01 8.12865496e-01 8.30409348e-01 8.30409348e-01
      8.24561417e-01 8.24561417e-01 8.12865496e-01 8.12865496e-01
      8.07017565e-01 8.01169574e-01 7.83625722e-01 7.95321643e-01
      8.18713427e-01 8.24561417e-01 8.24561417e-01 8.24561417e-01
      8.24561417e-01 8.18713427e-01 8.18713427e-01 8.18713427e-01
      7.95321643e-01 7.95321643e-01 8.18713427e-01 8.24561417e-01
      8.18713427e-01 8.12865496e-01 8.07017565e-01 8.18713427e-01
      7.95321643e-01 7.95321643e-01 7.95321643e-01 7.95321643e-01
      8.12865496e-01 8.18713427e-01 8.12865496e-01 8.18713427e-01
      8.18713427e-01 8.30409348e-01 8.01169574e-01 8.07017565e-01
      7.95321643e-01 8.01169574e-01 8.18713427e-01 8.18713427e-01
      8.07017565e-01 8.01169574e-01 8.01169574e-01 8.18713427e-01
      8.12865496e-01 8.18713427e-01 8.12865496e-01 8.12865496e-01
      8.30409348e-01 8.18713427e-01 8.01169574e-01 8.07017565e-01
      8.18713427e-01 8.18713427e-01 8.12865496e-01 8.12865496e-01
      8.24561417e-01 8.18713427e-01 8.30409348e-01 8.24561417e-01
      8.07017565e-01 8.12865496e-01 8.12865496e-01 8.12865496e-01</_>
    <_>
      8.71345043e-01 8.77192974e-01 8.71345043e-01 8.53801191e-01
      8.65497053e-01 8.83040965e-01 8.65497053e-01 8.71345043e-01
      8.77192974e-01 8.71345043e-01 8.77192974e-01 8.77192974e-01
      8.59649122e-01 8.42105269e-01 8.59649122e-01 8.65497053e-01
      8.47953200e-01 8.59649122e-01 8.59649122e-01 8.65497053e-01
      8.77192974e-01 8.71345043e-01 8.53801191e-01 8.36257339e-01
      8.36257339e-01 8.59649122e-01 8.59649122e-01 8.47953200e-01
      8.30409348e-01 8.47953200e-01 8.47953200e-01 8.42105269e-01
      8.53801191e-01 8.47953200e-01 8.42105269e-01 8.83040965e-01
      8.83040965e-01 8.65497053e-01 8.47953200e-01 8.59649122e-01
      8.59649122e-01 8.71345043e-01 8.71345043e-01 8.53801191e-01
      8.65497053e-01 8.77192974e-01 8.77192974e-01 8.65497053e-01
      8.53801191e-01 8.53801191e-01 8.59649122e-01 8.71345043e-01
      8.65497053e-01 8.42105269e-01 8.53801191e-01 8.65497053e-01
      8.71345043e-01 8.59649122e-01 8.36257339e-01 8.36257339e-01
      8.71345043e-01 8.65497053e-01 8.53801191e-01 8.42105269e-01
      8.42105269e-01 8.71345043e-01 8.71345043e-01 8.47953200e-01
      8.30409348e-01 8.42105269e-01 8.83040965e-01 8.65497053e-01
      8.59649122e-01 8.59649122e-01 8.59649122e-01 9.00584817e-01
      8.88888896e-01 8.47953200e-01 8.47953200e-01 8.47953200e-01
      8.83040965e-01 8.71345043e-01 8.71345043e-01 8.88888896e-01
      8.88888896e-01 9.06432748e-01 9.00584817e-01 8.65497053e-01
      8.53801191e-01 8.42105269e-01 8.77192974e-01 8.71345043e-01
      8.71345043e-01 8.83040965e-01 8.94736826e-01 8.83040965e-01
      8.71345043e-01 8.77192974e-01 8.59649122e-01 8.47953200e-01</_>
    <_>
      5.61403513e-01 5.67251444e-01 5.67251444e-01 5.61403513e-01
      5.55555582e-01 5.55555582e-01 5.73099434e-01 5.78947365e-01
      5.67251444e-01 5.55555582e-01 5.61403513e-01 5.67251444e-01
      5.55555582e-01 5.38011670e-01 5.38011670e-01 5.38011670e-01
      5.78947365e-01 5.90643287e-01 5.78947365e-01 5.43859661e-01
      5.67251444e-01 5.61403513e-01 5.55555582e-01 5.49707592e-01
      5.49707592e-01 5.38011670e-01 5.67251444e-01 5.67251444e-01
      5.78947365e-01 5.49707592e-01 5.61403513e-01 5.55555582e-01
      5.61403513e-01 5.67251444e-01 5.73099434e-01 5.55555582e-01
      5.67251444e-01 5.61403513e-01 5.78947365e-01 5.61403513e-01
      5.55555582e-01 5.49707592e-01 5.61403513e-01 5.67251444e-01
      5.67251444e-01 5.67251444e-01 5.78947365e-01 5.67251444e-01
      5.73099434e-01 5.61403513e-01 5.55555582e-01 5.55555582e-01
      5.61403513e-01 5.67251444e-01 5.61403513e-01 5.61403513e-01
      5.78947365e-01 5.73099434e-01 5.67251444e-01 5.55555582e-01
      5.67251444e-01 5.67251444e-01 5.73099434e-01 5.78947365e-01
      5.67251444e-01 5.61403513e-01 5.73099434e-01 5.73099434e-01
      5.49707592e-01 5.67251444e-01 5.84795296e-01 5.78947365e-01
      5.73099434e-01 5.73099434e-01 5.73099434e-01 5.67251444e-01
      5.73099434e-01 5.78947365e-01 5.49707592e-01 5.73099434e-01
      5.96491218e-01 5.84795296e-01 5.67251444e-01 5.67251444e-01
      5.78947365e-01 5.84795296e-01 5.84795296e-01 5.84795296e-01
      5.78947365e-01 5.84795296e-01 5.96491218e-01 5.90643287e-01
      5.73099434e-01 5.67251444e-01 5.90643287e-01 5.84795296e-01
      5.90643287e-01 6.02339208e-01 5.96491218e-01 5.73099434e-01</_>
    <_>
      3.62573087e-01 3.56725156e-01 3.56725156e-01 3.56725156e-01
      3.62573087e-01 3.74269009e-01 3.74269009e-01 3.62573087e-01
      3.50877196e-01 3.39181274e-01 3.62573087e-01 3.68421048e-01
      3.62573087e-01 3.62573087e-01 3.68421048e-01 3.74269009e-01
      3.74269009e-01 3.62573087e-01 3.45029235e-01 3.39181274e-01
      3.68421048e-01 3.74269009e-01 3.74269009e-01 3.68421048e-01
      3.62573087e-01 3.62573087e-01 3.68421048e-01 3.68421048e-01
      3.62573087e-01 3.56725156e-01 3.74269009e-01 3.74269009e-01
      3.74269009e-01 3.68421048e-01 3.62573087e-01 3.68421048e-01
      3.85964900e-01 3.80116969e-01 3.74269009e-01 3.68421048e-01
      3.74269009e-01 3.80116969e-01 3.68421048e-01 3.74269009e-01
      3.85964900e-01 3.91812861e-01 3.85964900e-01 3.80116969e-01
      3.62573087e-01 3.68421048e-01 3.68421048e-01 3.68421048e-01
      3.74269009e-01 3.80116969e-01 3.85964900e-01 3.80116969e-01
      3.80116969e-01 3.74269009e-01 3.74269009e-01 3.74269009e-01
      4.15204674e-01 3.85964900e-01 3.91812861e-01 3.91812861e-01
      3.91812861e-01 3.91812861e-01 3.80116969e-01 3.74269009e-01
      3.74269009e-01 3.91812861e-01 3.97660822e-01 3.85964900e-01
      3.97660822e-01 3.97660822e-01 3.85964900e-01 3.80116969e-01
      3.85964900e-01 3.91812861e-01 3.74269009e-01 3.74269009e-01
      3.97660822e-01 3.91812861e-01 3.91812861e-01 4.03508782e-01
      3.97660822e-01 3.91812861e-01 3.91812861e-01 3.85964900e-01
      3.74269009e-01 3.68421048e-01 3.91812861e-01 3.97660822e-01
      3.97660822e-01 4.03508782e-01 4.03508782e-01 3.97660822e-01
      3.97660822e-01 3.91812861e-01 3.74269009e-01 3.74269009e-01</_>
    <_>
      6.25730991e-01 6.31578922e-01 6.43274844e-01 6.60818696e-01
      6.31578922e-01 6.37426913e-01 6.49122834e-01 6.54970765e-01
      6.54970765e-01 6.60818696e-01 6.43274844e-01 6.37426913e-01
      6.49122834e-01 6.66666687e-01 6.60818696e-01 6.49122834e-01
      6.54970765e-01 6.54970765e-01 6.49122834e-01 6.60818696e-01
      6.49122834e-01 6.49122834e-01 6.49122834e-01 6.72514617e-01
      6.78362548e-01 6.54970765e-01 6.49122834e-01 6.49122834e-01
      6.49122834e-01 6.60818696e-01 6.54970765e-01 6.49122834e-01
      6.54970765e-01 6.60818696e-01 6.72514617e-01 6.60818696e-01
      6.54970765e-01 6.49122834e-01 6.49122834e-01 6.54970765e-01
      6.54970765e-01 6.49122834e-01 6.49122834e-01 6.60818696e-01
      6.72514617e-01 6.66666687e-01 6.60818696e-01 6.54970765e-01
      6.49122834e-01 6.43274844e-01 6.54970765e-01 6.37426913e-01
      6.43274844e-01 6.72514617e-01 6.78362548e-01 6.72514617e-01
      6.66666687e-01 6.60818696e-01 6.54970765e-01 6.49122834e-01
      6.49122834e-01 6.31578922e-01 6.43274844e-01 6.72514617e-01
      6.66666687e-01 6.72514617e-01 6.72514617e-01 6.66666687e-01
      6.66666687e-01 6.66666687e-01 6.54970765e-01 6.31578922e-01
      6.54970765e-01 6.60818696e-01 6.60818696e-01 6.90058470e-01
      6.95906460e-01 6.84210539e-01 6.78362548e-01 6.84210539e-01
      6.60818696e-01 6.54970765e-01 6.66666687e-01 6.66666687e-01
      6.60818696e-01 6.66666687e-01 6.84210539e-01 6.90058470e-01
      6.84210539e-01 6.90058470e-01 6.72514617e-01 6.60818696e-01
      6.66666687e-01 6.66666687e-01 6.60818696e-01 6.54970765e-01
      6.66666687e-01 6.72514617e-01 6.78362548e-01 6.90058470e-01</_>
    <_>
      2.74853796e-01 2.74853796e-01 2.74853796e-01 2.92397648e-01
      2.92397648e-01 2.86549717e-01 2.80701756e-01 2.69005835e-01
      2.63157904e-01 2.69005835e-01 2.74853796e-01 2.69005835e-01
      2.69005835e-01 2.98245609e-01 2.98245609e-01 2.92397648e-01
      2.80701756e-01 2.63157904e-01 2.63157904e-01 2.74853796e-01
      2.86549717e-01 2.74853796e-01 2.86549717e-01 2.98245609e-01
      2.86549717e-01 2.74853796e-01 2.80701756e-01 2.69005835e-01
      2.63157904e-01 2.69005835e-01 2.86549717e-01 2.86549717e-01
      2.92397648e-01 2.92397648e-01 2.74853796e-01 2.74853796e-01
      2.86549717e-01 2.80701756e-01 2.69005835e-01 2.69005835e-01
      2.74853796e-01 2.92397648e-01 2.98245609e-01 2.98245609e-01
      2.86549717e-01 2.98245609e-01 3.04093570e-01 2.80701756e-01
      2.63157904e-01 2.63157904e-01 2.92397648e-01 3.04093570e-01
      3.04093570e-01 3.09941530e-01 3.04093570e-01 3.09941530e-01
      3.09941530e-01 2.86549717e-01 2.69005835e-01 2.74853796e-01
      3.04093570e-01 3.09941530e-01 2.98245609e-01 3.09941530e-01
      3.04093570e-01 2.98245609e-01 2.92397648e-01 2.80701756e-01
      2.80701756e-01 2.86549717e-01 3.09941530e-01 3.04093570e-01
      2.98245609e-01 2.98245609e-01 2.92397648e-01 2.86549717e-01
      2.86549717e-01 2.80701756e-01 2.86549717e-01 2.92397648e-01
      3.09941530e-01 2.98245609e-01 3.04093570e-01 3.04093570e-01
      3.04093570e-01 3.04093570e-01 3.04093570e-01 3.04093570e-01
      2.98245609e-01 2.92397648e-01 3.04093570e-01 2.98245609e-01
      3.04093570e-01 3.21637422e-01 3.21637422e-01 3.27485383e-01
      3.21637422e-01 3.04093570e-01 2.98245609e-01 2.98245609e-01</_>
    <_>
      5.08771956e-01 5.08771956e-01 5.20467818e-01 5.08771956e-01
      5.20467818e-01 5.26315808e-01 5.26315808e-01 5.26315808e-01
      5.32163739e-01 5.20467818e-01 5.02923965e-01 5.20467818e-01
      5.20467818e-01 5.20467818e-01 5.26315808e-01 5.20467818e-01
      5.14619887e-01 5.26315808e-01 5.26315808e-01 5.08771956e-01
      5.08771956e-01 5.26315808e-01 5.20467818e-01 5.20467818e-01
      5.20467818e-01 5.08771956e-01 5.08771956e-01 5.20467818e-01
      5.14619887e-01 4.97076035e-01 5.14619887e-01 5.26315808e-01
      5.08771956e-01 4.97076035e-01 5.02923965e-01 5.02923965e-01
      5.02923965e-01 5.08771956e-01 5.14619887e-01 5.02923965e-01
      5.02923965e-01 5.14619887e-01 5.08771956e-01 5.14619887e-01
      5.08771956e-01 5.02923965e-01 4.97076035e-01 4.97076035e-01
      5.02923965e-01 5.08771956e-01 5.02923965e-01 5.14619887e-01
      4.97076035e-01 5.14619887e-01 5.26315808e-01 5.08771956e-01
      4.91228074e-01 4.91228074e-01 5.26315808e-01 5.26315808e-01
      4.85380113e-01 4.97076035e-01 5.08771956e-01 4.97076035e-01
      4.91228074e-01 4.91228074e-01 4.91228074e-01 4.91228074e-01
      4.97076035e-01 4.97076035e-01 4.79532152e-01 4.91228074e-01
      4.97076035e-01 4.79532152e-01 4.79532152e-01 4.85380113e-01
      4.91228074e-01 4.85380113e-01 4.97076035e-01 4.91228074e-01
      4.85380113e-01 4.91228074e-01 4.79532152e-01 4.79532152e-01
      4.79532152e-01 4.91228074e-01 4.97076035e-01 4.97076035e-01
      4.97076035e-01 4.97076035e-01 4.91228074e-01 4.91228074e-01
      4.73684222e-01 4.79532152e-01 4.85380113e-01 4.91228074e-01
      4.91228074e-01 4.85380113e-01 4.85380113e-01 4.85380113e-01</_>
    <_>
      7.83625722e-01 7.83625722e-01 7.89473712e-01 7.95321643e-01
      7.89473712e-01 7.66081870e-01 7.83625722e-01 7.77777791e-01
      7.77777791e-01 7.95321643e-01 7.95321643e-01 8.01169574e-01
      7.89473712e-01 7.83625722e-01 7.95321643e-01 8.01169574e-01
      7.95321643e-01 8.18713427e-01 8.24561417e-01 7.95321643e-01
      7.83625722e-01 7.83625722e-01 8.01169574e-01 8.07017565e-01
      8.01169574e-01 8.18713427e-01 8.01169574e-01 7.95321643e-01
      8.01169574e-01 7.95321643e-01 8.01169574e-01 8.07017565e-01
      7.95321643e-01 7.89473712e-01 8.07017565e-01 8.12865496e-01
      8.01169574e-01 8.07017565e-01 8.07017565e-01 7.89473712e-01
      7.95321643e-01 8.07017565e-01 8.07017565e-01 7.95321643e-01
      8.12865496e-01 8.30409348e-01 8.07017565e-01 8.01169574e-01
      7.95321643e-01 8.01169574e-01 8.01169574e-01 8.12865496e-01
      8.07017565e-01 7.77777791e-01 7.89473712e-01 8.01169574e-01
      8.01169574e-01 8.01169574e-01 7.95321643e-01 7.95321643e-01
      8.01169574e-01 8.12865496e-01 8.12865496e-01 7.89473712e-01
      7.89473712e-01 7.95321643e-01 7.95321643e-01 8.01169574e-01
      7.95321643e-01 7.95321643e-01 8.01169574e-01 8.12865496e-01
      8.18713427e-01 8.12865496e-01 7.95321643e-01 7.95321643e-01
      8.01169574e-01 8.07017565e-01 8.07017565e-01 7.95321643e-01
      8.01169574e-01 8.07017565e-01 8.12865496e-01 8.07017565e-01
      8.01169574e-01 8.01169574e-01 8.12865496e-01 8.18713427e-01
      8.07017565e-01 7.95321643e-01 8.01169574e-01 8.07017565e-01
      8.07017565e-01 7.95321643e-01 8.07017565e-01 8.12865496e-01
      8.07017565e-01 8.01169574e-01 7.95321643e-01 7.83625722e-01</_>
    <_>
      3.15789461e-01 3.04093570e-01 3.15789461e-01 3.21637422e-01
      3.27485383e-01 3.33333343e-01 3.21637422e-01 3.09941530e-01
      3.15789461e-01 3.15789461e-01 3.27485383e-01 3.09941530e-01
      3.21637422e-01 3.27485383e-01 3.27485383e-01 3.33333343e-01
      3.27485383e-01 3.21637422e-01 3.15789461e-01 3.21637422e-01
      3.15789461e-01 3.09941530e-01 3.21637422e-01 3.27485383e-01
      3.33333343e-01 3.33333343e-01 3.33333343e-01 3.27485383e-01
      3.15789461e-01 3.27485383e-01 3.15789461e-01 3.09941530e-01
      3.27485383e-01 3.27485383e-01 3.39181274e-01 3.39181274e-01
      3.33333343e-01 3.27485383e-01 3.27485383e-01 3.39181274e-01
      3.33333343e-01 3.21637422e-01 3.33333343e-01 3.27485383e-01
      3.39181274e-01 3.45029235e-01 3.33333343e-01 3.27485383e-01
      3.45029235e-01 3.50877196e-01 3.39181274e-01 3.27485383e-01
      3.27485383e-01 3.33333343e-01 3.39181274e-01 3.45029235e-01
      3.39181274e-01 3.39181274e-01 3.50877196e-01 3.45029235e-01
      3.45029235e-01 3.45029235e-01 3.45029235e-01 3.27485383e-01
      3.39181274e-01 3.45029235e-01 3.50877196e-01 3.50877196e-01
      3.45029235e-01 3.45029235e-01 3.45029235e-01 3.56725156e-01
      3.45029235e-01 3.50877196e-01 3.56725156e-01 3.45029235e-01
      3.50877196e-01 3.56725156e-01 3.39181274e-01 3.33333343e-01
      3.50877196e-01 3.74269009e-01 3.56725156e-01 3.39181274e-01
      3.56725156e-01 3.50877196e-01 3.50877196e-01 3.56725156e-01
      3.50877196e-01 3.62573087e-01 3.56725156e-01 3.62573087e-01
      3.62573087e-01 3.45029235e-01 3.50877196e-01 3.50877196e-01
      3.56725156e-01 3.62573087e-01 3.62573087e-01 3.56725156e-01</_>
    <_>
      7.54385948e-01 7.36842096e-01 7.48538017e-01 7.42690086e-01
      7.60233939e-01 7.54385948e-01 7.30994165e-01 7.30994165e-01
      7.60233939e-01 7.60233939e-01 7.42690086e-01 7.42690086e-01
      7.42690086e-01 7.54385948e-01 7.54385948e-01 7.54385948e-01
      7.42690086e-01 7.42690086e-01 7.60233939e-01 7.54385948e-01
      7.36842096e-01 7.30994165e-01 7.60233939e-01 7.48538017e-01
      7.48538017e-01 7.54385948e-01 7.54385948e-01 7.48538017e-01
      7.54385948e-01 7.48538017e-01 7.30994165e-01 7.30994165e-01
      7.60233939e-01 7.48538017e-01 7.48538017e-01 7.54385948e-01
      7.54385948e-01 7.54385948e-01 7.54385948e-01 7.48538017e-01
      7.19298244e-01 7.13450313e-01 7.42690086e-01 7.36842096e-01
      7.36842096e-01 7.48538017e-01 7.48538017e-01 7.36842096e-01
      7.36842096e-01 7.42690086e-01 7.36842096e-01 7.25146174e-01
      7.30994165e-01 7.25146174e-01 7.30994165e-01 7.48538017e-01
      7.48538017e-01 7.30994165e-01 7.25146174e-01 7.42690086e-01
      7.42690086e-01 7.36842096e-01 7.42690086e-01 7.36842096e-01
      7.42690086e-01 7.42690086e-01 7.42690086e-01 7.30994165e-01
      7.19298244e-01 7.30994165e-01 7.48538017e-01 7.36842096e-01
      7.42690086e-01 7.30994165e-01 7.42690086e-01 7.42690086e-01
      7.42690086e-01 7.36842096e-01 7.19298244e-01 7.25146174e-01
      7.48538017e-01 7.36842096e-01 7.19298244e-01 7.13450313e-01
      7.36842096e-01 7.42690086e-01 7.42690086e-01 7.36842096e-01
      7.19298244e-01 7.30994165e-01 7.36842096e-01 7.19298244e-01
      7.01754391e-01 7.13450313e-01 7.36842096e-01 7.36842096e-01
      7.42690086e-01 7.25146174e-01 7.13450313e-01 7.36842096e-01</_>
    <_>
      8.36257339e-01 8.53801191e-01 8.65497053e-01 8.42105269e-01
      8.30409348e-01 8.47953200e-01 8.59649122e-01 8.47953200e-01
      8.53801191e-01 8.53801191e-01 8.42105269e-01 8.42105269e-01
      8.36257339e-01 8.36257339e-01 8.36257339e-01 8.47953200e-01
      8.47953200e-01 8.65497053e-01 8.59649122e-01 8.65497053e-01
      8.47953200e-01 8.47953200e-01 8.42105269e-01 8.42105269e-01
      8.36257339e-01 8.47953200e-01 8.59649122e-01 8.71345043e-01
      8.65497053e-01 8.65497053e-01 8.53801191e-01 8.59649122e-01
      8.59649122e-01 8.53801191e-01 8.42105269e-01 8.30409348e-01
      8.71345043e-01 8.65497053e-01 8.65497053e-01 8.59649122e-01
      8.59649122e-01 8.59649122e-01 8.59649122e-01 8.59649122e-01
      8.47953200e-01 8.24561417e-01 8.65497053e-01 8.65497053e-01
      8.53801191e-01 8.53801191e-01 8.59649122e-01 8.59649122e-01
      8.65497053e-01 8.65497053e-01 8.53801191e-01 8.42105269e-01
      8.65497053e-01 8.59649122e-01 8.53801191e-01 8.59649122e-01
      8.65497053e-01 8.71345043e-01 8.71345043e-01 8.65497053e-01
      8.65497053e-01 8.65497053e-01 8.77192974e-01 8.65497053e-01
      8.53801191e-01 8.53801191e-01 8.53801191e-01 8.53801191e-01
      8.53801191e-01 8.53801191e-01 8.53801191e-01 8.53801191e-01
      8.65497053e-01 8.59649122e-01 8.53801191e-01 8.53801191e-01
      8.24561417e-01 8.42105269e-01 8.59649122e-01 8.65497053e-01
      8.71345043e-01 8.47953200e-01 8.12865496e-01 8.24561417e-01
      8.36257339e-01 8.71345043e-01 8.53801191e-01 8.59649122e-01
      8.59649122e-01 8.53801191e-01 8.53801191e-01 8.47953200e-01
      8.47953200e-01 8.47953200e-01 8.59649122e-01 8.77192974e-01</_>
    <_>
      7.77777791e-01 7.77777791e-01 7.95321643e-01 7.77777791e-01
      7.60233939e-01 7.60233939e-01 7.77777791e-01 7.83625722e-01
      7.71929801e-01 7.54385948e-01 7.71929801e-01 7.89473712e-01
      7.83625722e-01 7.66081870e-01 7.71929801e-01 7.71929801e-01
      7.71929801e-01 7.71929801e-01 7.71929801e-01 7.66081870e-01
      7.71929801e-01 7.83625722e-01 7.66081870e-01 7.60233939e-01
      7.83625722e-01 7.83625722e-01 7.71929801e-01 7.60233939e-01
      7.66081870e-01 7.71929801e-01 7.71929801e-01 7.77777791e-01
      7.60233939e-01 7.66081870e-01 7.83625722e-01 7.77777791e-01
      7.71929801e-01 7.66081870e-01 7.66081870e-01 7.71929801e-01
      7.71929801e-01 7.77777791e-01 7.60233939e-01 7.71929801e-01
      7.83625722e-01 7.77777791e-01 7.66081870e-01 7.66081870e-01
      7.66081870e-01 7.77777791e-01 7.77777791e-01 7.83625722e-01
      7.66081870e-01 7.71929801e-01 7.77777791e-01 7.71929801e-01
      7.60233939e-01 7.54385948e-01 7.66081870e-01 7.83625722e-01
      7.89473712e-01 8.01169574e-01 7.71929801e-01 7.60233939e-01
      7.66081870e-01 7.54385948e-01 7.42690086e-01 7.60233939e-01
      7.89473712e-01 7.83625722e-01 7.71929801e-01 7.77777791e-01
      7.71929801e-01 7.54385948e-01 7.42690086e-01 7.48538017e-01
      7.60233939e-01 7.71929801e-01 7.77777791e-01 7.83625722e-01
      7.54385948e-01 7.95321643e-01 7.77777791e-01 7.71929801e-01
      7.71929801e-01 7.71929801e-01 7.71929801e-01 7.66081870e-01
      7.54385948e-01 7.54385948e-01 7.83625722e-01 7.89473712e-01
      7.71929801e-01 7.77777791e-01 7.77777791e-01 7.77777791e-01
      7.77777791e-01 7.77777791e-01 7.71929801e-01 7.60233939e-01</_>
    <_>
      2.98245609e-01 3.04093570e-01 3.09941530e-01 3.04093570e-01
      3.04093570e-01 3.09941530e-01 3.09941530e-01 2.98245609e-01
      2.86549717e-01 2.80701756e-01 3.04093570e-01 3.15789461e-01
      3.15789461e-01 3.09941530e-01 3.04093570e-01 3.09941530e-01
      3.15789461e-01 3.04093570e-01 2.92397648e-01 2.80701756e-01
      3.09941530e-01 3.15789461e-01 3.09941530e-01 3.04093570e-01
      2.98245609e-01 3.04093570e-01 3.15789461e-01 3.09941530e-01
      3.04093570e-01 2.98245609e-01 3.15789461e-01 3.09941530e-01
      3.04093570e-01 3.04093570e-01 3.04093570e-01 3.04093570e-01
      3.09941530e-01 3.04093570e-01 3.04093570e-01 3.04093570e-01
      3.27485383e-01 3.21637422e-01 3.15789461e-01 3.21637422e-01
      3.15789461e-01 3.09941530e-01 3.09941530e-01 3.15789461e-01
      3.09941530e-01 2.98245609e-01 3.33333343e-01 3.50877196e-01
      3.39181274e-01 3.27485383e-01 3.27485383e-01 3.21637422e-01
      3.27485383e-01 3.33333343e-01 3.27485383e-01 3.09941530e-01
      3.27485383e-01 3.45029235e-01 3.50877196e-01 3.21637422e-01
      3.09941530e-01 3.15789461e-01 3.15789461e-01 3.15789461e-01
      3.15789461e-01 3.09941530e-01 3.33333343e-01 3.39181274e-01
      3.56725156e-01 3.45029235e-01 3.21637422e-01 3.15789461e-01
      3.15789461e-01 3.33333343e-01 3.39181274e-01 3.27485383e-01
      3.21637422e-01 3.45029235e-01 3.50877196e-01 3.33333343e-01
      3.04093570e-01 3.04093570e-01 3.27485383e-01 3.39181274e-01
      3.27485383e-01 3.21637422e-01 3.39181274e-01 3.39181274e-01
      3.56725156e-01 3.50877196e-01 3.27485383e-01 3.33333343e-01
      3.45029235e-01 3.33333343e-01 3.09941530e-01 3.09941530e-01</_>
    <_>
      8.94736826e-01 8.94736826e-01 9.00584817e-01 9.18128669e-01
      9.23976600e-01 9.12280679e-01 9.00584817e-01 9.00584817e-01
      9.18128669e-01 9.29824591e-01 8.94736826e-01 8.83040965e-01
      9.00584817e-01 9.18128669e-01 9.18128669e-01 9.12280679e-01
      8.94736826e-01 8.94736826e-01 9.12280679e-01 9.18128669e-01
      9.00584817e-01 8.88888896e-01 9.00584817e-01 9.12280679e-01
      9.12280679e-01 9.12280679e-01 8.83040965e-01 8.88888896e-01
      8.83040965e-01 8.94736826e-01 8.94736826e-01 9.06432748e-01
      9.12280679e-01 9.06432748e-01 9.00584817e-01 9.12280679e-01
      9.00584817e-01 9.06432748e-01 9.06432748e-01 9.12280679e-01
      8.83040965e-01 8.88888896e-01 9.12280679e-01 9.18128669e-01
      9.06432748e-01 8.83040965e-01 8.88888896e-01 9.12280679e-01
      9.29824591e-01 9.29824591e-01 9.06432748e-01 8.88888896e-01
      8.94736826e-01 9.12280679e-01 9.00584817e-01 8.77192974e-01
      8.59649122e-01 8.71345043e-01 8.71345043e-01 8.88888896e-01
      8.88888896e-01 8.83040965e-01 8.94736826e-01 9.12280679e-01
      9.18128669e-01 9.18128669e-01 9.18128669e-01 8.94736826e-01
      8.77192974e-01 8.88888896e-01 8.88888896e-01 8.83040965e-01
      9.06432748e-01 9.23976600e-01 9.12280679e-01 9.06432748e-01
      9.18128669e-01 8.83040965e-01 8.83040965e-01 9.06432748e-01
      8.83040965e-01 8.77192974e-01 8.88888896e-01 9.06432748e-01
      9.06432748e-01 8.83040965e-01 8.94736826e-01 8.88888896e-01
      8.88888896e-01 9.00584817e-01 9.00584817e-01 9.00584817e-01
      9.00584817e-01 9.00584817e-01 8.88888896e-01 8.65497053e-01
      8.71345043e-01 8.88888896e-01 9.00584817e-01 9.06432748e-01</_>
    <_>
      7.71929801e-01 7.77777791e-01 7.71929801e-01 7.42690086e-01
      7.30994165e-01 7.54385948e-01 7.71929801e-01 7.60233939e-01
      7.48538017e-01 7.42690086e-01 7.77777791e-01 7.66081870e-01
      7.60233939e-01 7.54385948e-01 7.42690086e-01 7.42690086e-01
      7.54385948e-01 7.54385948e-01 7.48538017e-01 7.54385948e-01
      7.60233939e-01 7.48538017e-01 7.42690086e-01 7.66081870e-01
      7.77777791e-01 7.60233939e-01 7.54385948e-01 7.66081870e-01
      7.66081870e-01 7.66081870e-01 7.48538017e-01 7.48538017e-01
      7.54385948e-01 7.71929801e-01 7.71929801e-01 7.60233939e-01
      7.54385948e-01 7.60233939e-01 7.60233939e-01 7.54385948e-01
      7.54385948e-01 7.66081870e-01 7.89473712e-01 7.77777791e-01
      7.66081870e-01 7.66081870e-01 7.66081870e-01 7.66081870e-01
      7.66081870e-01 7.54385948e-01 7.54385948e-01 7.89473712e-01
      8.01169574e-01 7.71929801e-01 7.66081870e-01 7.66081870e-01
      7.66081870e-01 7.71929801e-01 7.71929801e-01 7.71929801e-01
      7.60233939e-01 7.89473712e-01 7.83625722e-01 7.60233939e-01
      7.54385948e-01 7.54385948e-01 7.60233939e-01 7.66081870e-01
      7.71929801e-01 7.71929801e-01 7.71929801e-01 7.77777791e-01
      7.71929801e-01 7.48538017e-01 7.48538017e-01 7.54385948e-01
      7.66081870e-01 7.71929801e-01 7.66081870e-01 7.54385948e-01
      7.66081870e-01 7.77777791e-01 7.83625722e-01 7.71929801e-01
      7.54385948e-01 7.54385948e-01 7.66081870e-01 7.71929801e-01
      7.71929801e-01 7.66081870e-01 7.71929801e-01 7.71929801e-01
      7.77777791e-01 7.71929801e-01 7.54385948e-01 7.54385948e-01
      7.60233939e-01 7.60233939e-01 7.48538017e-01 7.42690086e-01</_>
    <_>
      3.39181274e-01 3.39181274e-01 3.45029235e-01 3.56725156e-01
      3.50877196e-01 3.50877196e-01 3.50877196e-01 3.45029235e-01
      3.50877196e-01 3.62573087e-01 3.50877196e-01 3.50877196e-01
      3.50877196e-01 3.68421048e-01 3.62573087e-01 3.56725156e-01
      3.50877196e-01 3.50877196e-01 3.62573087e-01 3.68421048e-01
      3.56725156e-01 3.50877196e-01 3.50877196e-01 3.62573087e-01
      3.62573087e-01 3.56725156e-01 3.50877196e-01 3.56725156e-01
      3.68421048e-01 3.68421048e-01 3.56725156e-01 3.50877196e-01
      3.45029235e-01 3.56725156e-01 3.62573087e-01 3.62573087e-01
      3.50877196e-01 3.62573087e-01 3.68421048e-01 3.68421048e-01
      3.68421048e-01 3.62573087e-01 3.56725156e-01 3.62573087e-01
      3.62573087e-01 3.62573087e-01 3.56725156e-01 3.68421048e-01
      3.80116969e-01 3.74269009e-01 3.74269009e-01 3.74269009e-01
      3.74269009e-01 3.74269009e-01 3.62573087e-01 3.62573087e-01
      3.74269009e-01 3.62573087e-01 3.80116969e-01 3.74269009e-01
      3.68421048e-01 3.68421048e-01 3.62573087e-01 3.68421048e-01
      3.56725156e-01 3.80116969e-01 3.68421048e-01 3.56725156e-01
      3.74269009e-01 3.85964900e-01 3.74269009e-01 3.80116969e-01
      3.91812861e-01 3.85964900e-01 3.91812861e-01 3.91812861e-01
      3.74269009e-01 3.68421048e-01 3.85964900e-01 3.91812861e-01
      3.62573087e-01 3.62573087e-01 3.68421048e-01 3.80116969e-01
      3.74269009e-01 3.85964900e-01 3.80116969e-01 3.80116969e-01
      3.80116969e-01 3.91812861e-01 3.74269009e-01 3.68421048e-01
      3.68421048e-01 3.74269009e-01 3.68421048e-01 3.97660822e-01
      3.74269009e-01 3.91812861e-01 3.97660822e-01 3.97660822e-01</_>
    <_>
      8.30409348e-01 8.36257339e-01 8.42105269e-01 8.59649122e-01
      8.42105269e-01 8.47953200e-01 8.65497053e-01 8.59649122e-01
      8.65497053e-01 8.53801191e-01 8.47953200e-01 8.47953200e-01
      8.42105269e-01 8.36257339e-01 8.12865496e-01 8.36257339e-01
      8.77192974e-01 8.59649122e-01 8.53801191e-01 8.47953200e-01
      8.53801191e-01 8.42105269e-01 8.24561417e-01 8.30409348e-01
      8.24561417e-01 8.30409348e-01 8.83040965e-01 8.65497053e-01
      8.53801191e-01 8.47953200e-01 8.47953200e-01 8.42105269e-01
      8.24561417e-01 8.24561417e-01 8.36257339e-01 8.42105269e-01
      8.65497053e-01 8.65497053e-01 8.65497053e-01 8.59649122e-01
      8.36257339e-01 8.36257339e-01 8.36257339e-01 8.42105269e-01
      8.53801191e-01 8.53801191e-01 8.65497053e-01 8.71345043e-01
      8.71345043e-01 8.65497053e-01 8.36257339e-01 8.36257339e-01
      8.42105269e-01 8.71345043e-01 8.59649122e-01 8.59649122e-01
      8.59649122e-01 8.65497053e-01 8.65497053e-01 8.59649122e-01
      8.36257339e-01 8.42105269e-01 8.47953200e-01 8.65497053e-01
      8.59649122e-01 8.53801191e-01 8.47953200e-01 8.53801191e-01
      8.53801191e-01 8.53801191e-01 8.42105269e-01 8.65497053e-01
      8.53801191e-01 8.42105269e-01 8.47953200e-01 8.47953200e-01
      8.53801191e-01 8.53801191e-01 8.42105269e-01 8.42105269e-01
      8.71345043e-01 8.65497053e-01 8.42105269e-01 8.53801191e-01
      8.47953200e-01 8.59649122e-01 8.71345043e-01 8.47953200e-01
